{"learner":{"attributes":{},"feature_names":["boyce","box_reock","hull","len_wid","polsby","skew","sym_x","sym_y"],"feature_types":[],"gradient_booster":{"model":{"cats":{"enc":[],"feature_segments":[],"sorted_idx":[]},"gbtree_model_param":{"num_parallel_tree":"1","num_trees":"186"},"iteration_indptr":[0,1,2,3,4,5,6,7,8,9,10,11,12,13,14,15,16,17,18,19,20,21,22,23,24,25,26,27,28,29,30,31,32,33,34,35,36,37,38,39,40,41,42,43,44,45,46,47,48,49,50,51,52,53,54,55,56,57,58,59,60,61,62,63,64,65,66,67,68,69,70,71,72,73,74,75,76,77,78,79,80,81,82,83,84,85,86,87,88,89,90,91,92,93,94,95,96,97,98,99,100,101,102,103,104,105,106,107,108,109,110,111,112,113,114,115,116,117,118,119,120,121,122,123,124,125,126,127,128,129,130,131,132,133,134,135,136,137,138,139,140,141,142,143,144,145,146,147,148,149,150,151,152,153,154,155,156,157,158,159,160,161,162,163,164,165,166,167,168,169,170,171,172,173,174,175,176,177,178,179,180,181,182,183,184,185,186],"tree_info":[0,0,0,0,0,0,0,0,0,0,0,0,0,0,0,0,0,0,0,0,0,0,0,0,0,0,0,0,0,0,0,0,0,0,0,0,0,0,0,0,0,0,0,0,0,0,0,0,0,0,0,0,0,0,0,0,0,0,0,0,0,0,0,0,0,0,0,0,0,0,0,0,0,0,0,0,0,0,0,0,0,0,0,0,0,0,0,0,0,0,0,0,0,0,0,0,0,0,0,0,0,0,0,0,0,0,0,0,0,0,0,0,0,0,0,0,0,0,0,0,0,0,0,0,0,0,0,0,0,0,0,0,0,0,0,0,0,0,0,0,0,0,0,0,0,0,0,0,0,0,0,0,0,0,0,0,0,0,0,0,0,0,0,0,0,0,0,0,0,0,0,0,0,0,0,0,0,0,0,0,0,0,0,0,0,0],"trees":[{"base_weights":[7.4363393E-3,-2.3521234E-1,1.985819E-1,-3.7167343E-1,-1.6505383E-1,1.31559875E-2,3.0248186E-1,-1.1395734E-2,-8.486395E-3,-2.106676E-1,-8.778361E-2,-1.573051E-2,2.8242045E-3,2.385607E-1,1.1089104E-2,-7.003906E-3,-3.5553204E-3,-4.474171E-3,-3.536515E-4,-1.7239588E-3,1.8022717E-4,4.2911614E-3,7.832329E-3],"categories":[],"categories_nodes":[],"categories_segments":[],"categories_sizes":[],"default_left":[0,0,0,0,0,0,0,0,0,0,0,0,0,0,0,0,0,0,0,0,0,0,0],"id":0,"left_children":[1,3,5,7,9,11,13,-1,-1,15,17,19,-1,21,-1,-1,-1,-1,-1,-1,-1,-1,-1],"loss_changes":[1.9155771E1,1.6811047E0,4.4464073E0,2.195263E-2,4.1150594E-1,2.1367583E-1,7.7974606E-1,0E0,0E0,2.1587229E-1,2.5078928E-1,6.5110765E-2,0E0,2.6869822E-1,0E0,0E0,0E0,0E0,0E0,0E0,0E0,0E0,0E0],"parents":[2147483647,0,0,1,1,2,2,3,3,4,4,5,5,6,6,9,9,10,10,11,11,13,13],"right_children":[2,4,6,8,10,12,14,-1,-1,16,18,20,-1,22,-1,-1,-1,-1,-1,-1,-1,-1,-1],"split_conditions":[7.3064375E-1,1.9732966E-1,3.682308E-1,4.9462956E-1,3.3834648E-1,7.617032E-1,4.9175844E-1,-1.1395734E-2,-8.486395E-3,6.8607634E-1,2.6318428E-1,2.9007906E-1,2.8242045E-3,8.0623704E-1,1.1089104E-2,-7.003906E-3,-3.5553204E-3,-4.474171E-3,-3.536515E-4,-1.7239588E-3,1.8022717E-4,4.2911614E-3,7.832329E-3],"split_indices":[2,4,4,6,5,7,4,0,0,2,4,4,0,2,0,0,0,0,0,0,0,0,0],"split_type":[0,0,0,0,0,0,0,0,0,0,0,0,0,0,0,0,0,0,0,0,0,0,0],"sum_hessian":[4.11E2,1.81E2,2.3E2,6E1,1.21E2,8.3E1,1.47E2,3.7E1,2.3E1,7.5E1,4.6E1,6.3E1,2E1,8.9E1,5.8E1,5E1,2.5E1,2.3E1,2.3E1,2E1,4.3E1,3E1,5.9E1],"tree_param":{"num_deleted":"0","num_feature":"8","num_nodes":"23","size_leaf_vector":"1"}},{"base_weights":[-1.6713792E-3,-1.6617087E-1,2.8176808E-1,-3.015877E-1,-4.5463573E-2,4.4597164E-3,3.2280362E-1,-1.0504211E-2,-2.3869608E-1,-8.619323E-2,4.463063E-2,7.446843E-3,1.0791951E-2,-7.5146104E-3,-4.7025974E-3,-4.548412E-3,-1.3013956E-3,3.2768218E-4,2.2075637E-3],"categories":[],"categories_nodes":[],"categories_segments":[],"categories_sizes":[],"default_left":[0,0,0,0,0,0,0,0,0,0,0,0,0,0,0,0,0,0,0],"id":1,"left_children":[1,3,5,7,9,-1,11,-1,13,15,17,-1,-1,-1,-1,-1,-1,-1,-1],"loss_changes":[1.879033E1,4.1544676E0,6.9554234E-1,4.5747852E-1,5.0289965E-1,0E0,2.8786182E-1,0E0,9.3073845E-2,2.763319E-1,4.7240667E-2,0E0,0E0,0E0,0E0,0E0,0E0,0E0,0E0],"parents":[2147483647,0,0,1,1,2,2,3,3,4,4,6,6,8,8,9,9,10,10],"right_children":[2,4,6,8,10,-1,12,-1,14,16,18,-1,-1,-1,-1,-1,-1,-1,-1],"split_conditions":[3.5973415E-1,6.8607634E-1,8.0757785E-1,1.9913115E-1,4.0697533E-1,4.4597164E-3,4.9560955E-1,-1.0504211E-2,5.97799E-1,2.7284712E-1,7.53746E-1,7.446843E-3,1.0791951E-2,-7.5146104E-3,-4.7025974E-3,-4.548412E-3,-1.3013956E-3,3.2768218E-4,2.2075637E-3],"split_indices":[4,2,2,4,5,0,4,0,6,4,2,0,0,0,0,0,0,0,0],"split_type":[0,0,0,0,0,0,0,0,0,0,0,0,0,0,0,0,0,0,0],"sum_hessian":[4.01E2,2.54E2,1.47E2,1.19E2,1.35E2,3.8E1,1.09E2,5.3E1,6.6E1,9.3E1,4.2E1,5.9E1,5E1,4.5E1,2.1E1,3.1E1,6.2E1,2.2E1,2E1],"tree_param":{"num_deleted":"0","num_feature":"8","num_nodes":"19","size_leaf_vector":"1"}},{"base_weights":[5.812247E-3,-1.5602519E-1,2.7371654E-1,-2.7462843E-1,-4.0835947E-2,2.01428E-1,9.9552395E-3,-3.120114E-1,-2.767012E-3,-8.68617E-2,4.9005527E-2,3.5674602E-3,6.922633E-3,-9.791915E-3,-5.9993886E-3,-4.111775E-3,-1.0645811E-3,4.5113938E-4,2.128372E-3],"categories":[],"categories_nodes":[],"categories_segments":[],"categories_sizes":[],"default_left":[0,0,0,0,0,0,0,0,0,0,0,0,0,0,0,0,0,0,0],"id":2,"left_children":[1,3,5,7,9,11,-1,13,-1,15,17,-1,-1,-1,-1,-1,-1,-1,-1],"loss_changes":[1.7385483E1,3.4042392E0,8.102541E-1,7.7898693E-1,5.335395E-1,2.4366403E-1,0E0,2.8980064E-1,0E0,2.4224597E-1,3.7600487E-2,0E0,0E0,0E0,0E0,0E0,0E0,0E0,0E0],"parents":[2147483647,0,0,1,1,2,2,3,3,4,4,5,5,7,7,9,9,10,10],"right_children":[2,4,6,8,10,12,-1,14,-1,16,18,-1,-1,-1,-1,-1,-1,-1,-1],"split_conditions":[3.5973415E-1,2.5592655E-1,4.6032816E-1,3.7679103E-1,3.9519626E-1,8.0623704E-1,9.9552395E-3,6.5841794E-1,-2.767012E-3,7.166269E-1,3.120325E-1,3.5674602E-3,6.922633E-3,-9.791915E-3,-5.9993886E-3,-4.111775E-3,-1.0645811E-3,4.5113938E-4,2.128372E-3],"split_indices":[4,4,4,5,5,2,0,2,0,2,4,0,0,0,0,0,0,0,0],"split_type":[0,0,0,0,0,0,0,0,0,0,0,0,0,0,0,0,0,0,0],"sum_hessian":[3.99E2,2.49E2,1.5E2,1.22E2,1.27E2,8.1E1,6.9E1,1E2,2.2E1,8.4E1,4.3E1,3.2E1,4.9E1,7.1E1,2.9E1,3.7E1,4.7E1,2E1,2.3E1],"tree_param":{"num_deleted":"0","num_feature":"8","num_nodes":"19","size_leaf_vector":"1"}},{"base_weights":[-1.113204E-3,-1.5724629E-1,2.723891E-1,-2.893141E-1,-4.2796284E-2,2.1528044E-1,1.0205152E-2,-1.0246445E-2,-2.2709586E-1,-8.3512776E-2,4.0413566E-2,4.0691136E-3,2.4294625E-1,-7.0680985E-3,-4.462894E-3,-4.681491E-3,-1.2991524E-3,3.0998373E-5,2.3880408E-3,5.273598E-3,7.381696E-3],"categories":[],"categories_nodes":[],"categories_segments":[],"categories_sizes":[],"default_left":[0,0,0,0,0,0,0,0,0,0,0,0,0,0,0,0,0,0,0,0,0],"id":3,"left_children":[1,3,5,7,9,11,-1,-1,13,15,17,-1,19,-1,-1,-1,-1,-1,-1,-1,-1],"loss_changes":[1.750826E1,3.932675E0,6.9608116E-1,4.8585606E-1,4.8108494E-1,1.478467E-1,0E0,0E0,7.5666666E-2,2.8668278E-1,8.234427E-2,0E0,2.3100138E-2,0E0,0E0,0E0,0E0,0E0,0E0,0E0,0E0],"parents":[2147483647,0,0,1,1,2,2,3,3,4,4,5,5,8,8,9,9,10,10,12,12],"right_children":[2,4,6,8,10,12,-1,-1,14,16,18,-1,20,-1,-1,-1,-1,-1,-1,-1,-1],"split_conditions":[3.5973415E-1,6.8607634E-1,4.9175844E-1,1.9913115E-1,4.0697533E-1,7.1066415E-1,1.0205152E-2,-1.0246445E-2,5.97799E-1,2.6318428E-1,7.53746E-1,4.0691136E-3,8.159502E-1,-7.0680985E-3,-4.462894E-3,-4.681491E-3,-1.2991524E-3,3.0998373E-5,2.3880408E-3,5.273598E-3,7.381696E-3],"split_indices":[4,2,4,4,5,7,0,0,6,4,2,0,2,0,0,0,0,0,0,0,0],"split_type":[0,0,0,0,0,0,0,0,0,0,0,0,0,0,0,0,0,0,0,0,0],"sum_hessian":[4.08E2,2.6E2,1.48E2,1.2E2,1.4E2,9.3E1,5.5E1,5.2E1,6.8E1,9.4E1,4.6E1,2.8E1,6.5E1,4.8E1,2E1,2.8E1,6.6E1,2.5E1,2.1E1,2E1,4.5E1],"tree_param":{"num_deleted":"0","num_feature":"8","num_nodes":"21","size_leaf_vector":"1"}},{"base_weights":[2.8395597E-3,-2.1669105E-1,1.7169712E-1,-2.93076E-1,-9.5296144E-2,1.582645E-2,2.672603E-1,-1.002342E-2,-2.3789567E-1,-1.267176E-1,-1.2755422E-3,-1.5051145E-2,2.715962E-3,4.1947714E-3,3.0066285E-1,-7.309979E-3,-5.1047304E-3,-4.123873E-3,-2.8878974E-3,-1.0187634E-3,3.7294984E-4,6.9550844E-3,9.913714E-3],"categories":[],"categories_nodes":[],"categories_segments":[],"categories_sizes":[],"default_left":[0,0,0,0,0,0,0,0,0,0,0,0,0,0,0,0,0,0,0,0,0,0,0],"id":4,"left_children":[1,3,5,7,9,11,13,-1,15,17,-1,19,-1,-1,21,-1,-1,-1,-1,-1,-1,-1,-1],"loss_changes":[1.53468685E1,1.6411657E0,3.481317E0,3.0258274E-1,1.0551524E-1,2.2623035E-1,5.260887E-1,0E0,3.0629873E-2,5.5699944E-3,0E0,4.0169634E-2,0E0,0E0,2.233305E-1,0E0,0E0,0E0,0E0,0E0,0E0,0E0,0E0],"parents":[2147483647,0,0,1,1,2,2,3,3,4,4,5,5,6,6,8,8,9,9,11,11,14,14],"right_children":[2,4,6,8,10,12,14,-1,16,18,-1,20,-1,-1,22,-1,-1,-1,-1,-1,-1,-1,-1],"split_conditions":[7.287931E-1,6.7750955E-1,3.682308E-1,1.8887253E-1,8.2903045E-1,7.617032E-1,8.0757785E-1,-1.002342E-2,6.518538E-1,5.293929E-1,-1.2755422E-3,6.663155E-1,2.715962E-3,4.1947714E-3,4.9560955E-1,-7.309979E-3,-5.1047304E-3,-4.123873E-3,-2.8878974E-3,-1.0187634E-3,3.7294984E-4,6.9550844E-3,9.913714E-3],"split_indices":[2,2,4,4,0,7,2,0,2,1,0,6,0,0,4,0,0,0,0,0,0,0,0],"split_type":[0,0,0,0,0,0,0,0,0,0,0,0,0,0,0,0,0,0,0,0,0,0,0],"sum_hessian":[4.12E2,1.79E2,2.33E2,1.09E2,7E1,8.9E1,1.44E2,4.8E1,6.1E1,4.2E1,2.8E1,6.5E1,2.4E1,3.3E1,1.11E2,4.1E1,2E1,2E1,2.2E1,3.7E1,2.8E1,5.8E1,5.3E1],"tree_param":{"num_deleted":"0","num_feature":"8","num_nodes":"23","size_leaf_vector":"1"}},{"base_weights":[3.0571015E-3,-1.4274952E-1,2.4825749E-1,-2.7250078E-1,-3.223074E-2,1.3622996E-1,2.8905147E-1,-3.0325878E-1,-5.2428064E-3,-6.985177E-2,4.211526E-2,2.535227E-3,4.837837E-3,6.431818E-3,9.237559E-3,-9.697907E-3,-7.048073E-3,-3.9950986E-3,-1.0826174E-3,1.3792682E-4,2.2218141E-3],"categories":[],"categories_nodes":[],"categories_segments":[],"categories_sizes":[],"default_left":[0,0,0,0,0,0,0,0,0,0,0,0,0,0,0,0,0,0,0,0,0],"id":5,"left_children":[1,3,5,7,9,11,13,15,-1,17,19,-1,-1,-1,-1,-1,-1,-1,-1,-1,-1],"loss_changes":[1.4765196E1,3.7052646E0,6.644106E-1,2.5748348E-1,3.9731508E-1,5.5659175E-2,1.927824E-1,1.0250044E-1,0E0,2.0756164E-1,6.568442E-2,0E0,0E0,0E0,0E0,0E0,0E0,0E0,0E0,0E0,0E0],"parents":[2147483647,0,0,1,1,2,2,3,3,4,4,5,5,6,6,7,7,9,9,10,10],"right_children":[2,4,6,8,10,12,14,16,-1,18,20,-1,-1,-1,-1,-1,-1,-1,-1,-1,-1],"split_conditions":[3.5973415E-1,6.8607634E-1,8.0757785E-1,6.544862E-1,4.0697533E-1,3.9982644E-1,4.5881552E-1,1.8887253E-1,-5.2428064E-3,2.6318428E-1,8.82235E-1,2.535227E-3,4.837837E-3,6.431818E-3,9.237559E-3,-9.697907E-3,-7.048073E-3,-3.9950986E-3,-1.0826174E-3,1.3792682E-4,2.2218141E-3],"split_indices":[4,2,2,2,5,4,4,4,0,4,0,0,0,0,0,0,0,0,0,0,0],"split_type":[0,0,0,0,0,0,0,0,0,0,0,0,0,0,0,0,0,0,0,0,0],"sum_hessian":[4.11E2,2.58E2,1.53E2,1.18E2,1.4E2,4.2E1,1.11E2,8.5E1,3.3E1,9.3E1,4.7E1,2E1,2.2E1,4.7E1,6.4E1,4.4E1,4.1E1,2.7E1,6.6E1,2.4E1,2.3E1],"tree_param":{"num_deleted":"0","num_feature":"8","num_nodes":"21","size_leaf_vector":"1"}},{"base_weights":[8.6379E-4,-1.390404E-1,2.4216923E-1,-2.4611932E-1,-3.0883629E-2,1.7596892E-1,8.942845E-3,-2.8623748E-1,-2.7496715E-3,-9.048216E-2,2.0642022E-2,3.2840173E-3,6.1064865E-3,-8.6408835E-3,-5.746028E-3,-3.7038273E-3,-9.827114E-4,-2.1165273E-4,1.5260458E-3],"categories":[],"categories_nodes":[],"categories_segments":[],"categories_sizes":[],"default_left":[0,0,0,0,0,0,0,0,0,0,0,0,0,0,0,0,0,0,0],"id":6,"left_children":[1,3,5,7,9,11,-1,13,-1,15,17,-1,-1,-1,-1,-1,-1,-1,-1],"loss_changes":[1.3706325E1,2.9687958E0,6.962652E-1,7.389903E-1,3.9800775E-1,1.7531848E-1,0E0,1.1388111E-1,0E0,1.3323489E-1,6.687799E-2,0E0,0E0,0E0,0E0,0E0,0E0,0E0,0E0],"parents":[2147483647,0,0,1,1,2,2,3,3,4,4,5,5,7,7,9,9,10,10],"right_children":[2,4,6,8,10,12,-1,14,-1,16,18,-1,-1,-1,-1,-1,-1,-1,-1],"split_conditions":[3.5973415E-1,2.5592655E-1,4.6032816E-1,6.934846E-1,3.4507138E-1,8.0623704E-1,8.942845E-3,6.135283E-1,-2.7496715E-3,7.166269E-1,4.1773838E-1,3.2840173E-3,6.1064865E-3,-8.6408835E-3,-5.746028E-3,-3.7038273E-3,-9.827114E-4,-2.1165273E-4,1.5260458E-3],"split_indices":[4,4,4,2,5,2,0,7,0,2,5,0,0,0,0,0,0,0,0],"split_type":[0,0,0,0,0,0,0,0,0,0,0,0,0,0,0,0,0,0,0],"sum_hessian":[4.04E2,2.56E2,1.48E2,1.28E2,1.28E2,8.1E1,6.7E1,1E2,2.8E1,5.9E1,6.9E1,3.5E1,4.6E1,7.7E1,2.3E1,3.3E1,2.6E1,3.8E1,3.1E1],"tree_param":{"num_deleted":"0","num_feature":"8","num_nodes":"19","size_leaf_vector":"1"}},{"base_weights":[2.2032734E-3,-1.3502347E-1,2.4048077E-1,-2.546757E-1,-3.320929E-2,1.7149049E-1,3.071536E-1,-2.8600097E-1,-5.0092246E-3,-7.532116E-2,3.5252597E-2,3.3071716E-3,5.8620307E-3,7.5798226E-3,9.633749E-3,-9.3057575E-3,-6.531089E-3,-4.3572593E-3,-1.1920322E-3,6.968128E-6,2.0484156E-3],"categories":[],"categories_nodes":[],"categories_segments":[],"categories_sizes":[],"default_left":[0,0,0,0,0,0,0,0,0,0,0,0,0,0,0,0,0,0,0,0,0],"id":7,"left_children":[1,3,5,7,9,11,13,15,-1,17,19,-1,-1,-1,-1,-1,-1,-1,-1,-1,-1],"loss_changes":[1.3242481E1,3.1223917E0,6.280937E-1,2.3104525E-1,4.062834E-1,1.2550378E-1,6.334305E-3,1.2171221E-1,0E0,2.2174656E-1,7.1220554E-2,0E0,0E0,0E0,0E0,0E0,0E0,0E0,0E0,0E0,0E0],"parents":[2147483647,0,0,1,1,2,2,3,3,4,4,5,5,6,6,7,7,9,9,10,10],"right_children":[2,4,6,8,10,12,14,16,-1,18,20,-1,-1,-1,-1,-1,-1,-1,-1,-1,-1],"split_conditions":[3.5973415E-1,6.8607634E-1,4.6032816E-1,6.544862E-1,3.9519626E-1,8.0623704E-1,5.4579574E-1,1.8887253E-1,-5.0092246E-3,2.6318428E-1,7.53746E-1,3.3071716E-3,5.8620307E-3,7.5798226E-3,9.633749E-3,-9.3057575E-3,-6.531089E-3,-4.3572593E-3,-1.1920322E-3,6.968128E-6,2.0484156E-3],"split_indices":[4,2,4,2,5,2,4,4,0,4,2,0,0,0,0,0,0,0,0,0,0],"split_type":[0,0,0,0,0,0,0,0,0,0,0,0,0,0,0,0,0,0,0,0,0],"sum_hessian":[4.03E2,2.56E2,1.47E2,1.17E2,1.39E2,7.4E1,7.3E1,8.1E1,3.6E1,8.6E1,5.3E1,3.2E1,4.2E1,4E1,3.3E1,4.1E1,4E1,2.4E1,6.2E1,2.8E1,2.5E1],"tree_param":{"num_deleted":"0","num_feature":"8","num_nodes":"21","size_leaf_vector":"1"}},{"base_weights":[2.2949446E-3,-1.9504604E-1,1.5691149E-1,-2.6087317E-1,-8.938605E-2,2.7977042E-2,2.5170547E-1,-9.111142E-3,-2.072989E-1,-1.2904522E-1,-7.722624E-4,-1.3154666E-3,3.8429582E-3,1.976602E-1,8.935711E-3,-6.9515826E-3,-4.9481075E-3,-4.9126237E-3,-2.289943E-3,-6.9044094E-4,1.5842019E-3,3.807138E-3,6.3311695E-3],"categories":[],"categories_nodes":[],"categories_segments":[],"categories_sizes":[],"default_left":[0,0,0,0,0,0,0,0,0,0,0,0,0,0,0,0,0,0,0,0,0,0,0],"id":8,"left_children":[1,3,5,7,9,11,13,-1,15,17,-1,19,-1,21,-1,-1,-1,-1,-1,-1,-1,-1,-1],"loss_changes":[1.2571112E1,1.2355895E0,2.816289E0,3.107047E-1,1.707136E-1,3.1587926E-1,4.149542E-1,0E0,3.5232306E-2,7.946348E-2,0E0,1.0750528E-1,0E0,1.0054183E-1,0E0,0E0,0E0,0E0,0E0,0E0,0E0,0E0,0E0],"parents":[2147483647,0,0,1,1,2,2,3,3,4,4,5,5,6,6,8,8,9,9,11,11,13,13],"right_children":[2,4,6,8,10,12,14,-1,16,18,-1,20,-1,22,-1,-1,-1,-1,-1,-1,-1,-1,-1],"split_conditions":[7.287931E-1,6.7750955E-1,3.8510352E-1,1.8887253E-1,8.2903045E-1,6.369186E-1,4.9175844E-1,-9.111142E-3,4.872319E-1,2.674033E-1,-7.722624E-4,3.3838075E-1,3.8429582E-3,8.0757785E-1,8.935711E-3,-6.9515826E-3,-4.9481075E-3,-4.9126237E-3,-2.289943E-3,-6.9044094E-4,1.5842019E-3,3.807138E-3,6.3311695E-3],"split_indices":[2,2,4,4,0,1,4,0,7,4,0,4,0,2,0,0,0,0,0,0,0,0,0],"split_type":[0,0,0,0,0,0,0,0,0,0,0,0,0,0,0,0,0,0,0,0,0,0,0],"sum_hessian":[4.1E2,1.8E2,2.3E2,1.1E2,7E1,9.8E1,1.32E2,4.8E1,6.2E1,4.2E1,2.8E1,7.8E1,2E1,7.5E1,5.7E1,2.4E1,3.8E1,2E1,2.2E1,5.6E1,2.2E1,2.5E1,5E1],"tree_param":{"num_deleted":"0","num_feature":"8","num_nodes":"23","size_leaf_vector":"1"}},{"base_weights":[2.4704929E-3,-1.8782811E-1,1.5092556E-1,-2.3656528E-1,-6.882466E-2,9.764711E-3,2.3248276E-1,-2.7130374E-1,-3.7223026E-3,-3.1066705E-3,-8.137854E-4,-1.6316772E-2,2.5631837E-3,1.81473E-1,8.701412E-3,-8.833967E-3,-6.4447206E-3,-1.9343327E-3,3.2378032E-4,3.4177995E-3,6.037704E-3],"categories":[],"categories_nodes":[],"categories_segments":[],"categories_sizes":[],"default_left":[0,0,0,0,0,0,0,0,0,0,0,0,0,0,0,0,0,0,0,0,0],"id":9,"left_children":[1,3,5,7,9,11,13,15,-1,-1,-1,17,-1,19,-1,-1,-1,-1,-1,-1,-1],"loss_changes":[1.1667674E1,1.0334983E0,2.668672E0,4.265728E-1,8.673343E-2,1.8430643E-1,5.2383566E-1,9.966755E-2,0E0,0E0,0E0,9.739275E-2,0E0,1.5614796E-1,0E0,0E0,0E0,0E0,0E0,0E0,0E0],"parents":[2147483647,0,0,1,1,2,2,3,3,4,4,5,5,6,6,7,7,11,11,13,13],"right_children":[2,4,6,8,10,12,14,16,-1,-1,-1,18,-1,20,-1,-1,-1,-1,-1,-1,-1],"split_conditions":[7.287931E-1,2.6318428E-1,3.682308E-1,6.2629175E-1,7.975603E-1,7.7739865E-1,4.9175844E-1,1.8887253E-1,-3.7223026E-3,-3.1066705E-3,-8.137854E-4,3.4890863E-1,2.5631837E-3,7.365964E-1,8.701412E-3,-8.833967E-3,-6.4447206E-3,-1.9343327E-3,3.2378032E-4,3.4177995E-3,6.037704E-3],"split_indices":[2,4,4,6,0,7,4,4,0,0,0,5,0,7,0,0,0,0,0,0,0],"split_type":[0,0,0,0,0,0,0,0,0,0,0,0,0,0,0,0,0,0,0,0,0],"sum_hessian":[4.11E2,1.8E2,2.31E2,1.27E2,5.3E1,8.5E1,1.46E2,9.4E1,3.3E1,2.5E1,2.8E1,6.5E1,2E1,9E1,5.6E1,4.3E1,5.1E1,2.2E1,4.3E1,3.4E1,5.6E1],"tree_param":{"num_deleted":"0","num_feature":"8","num_nodes":"21","size_leaf_vector":"1"}},{"base_weights":[6.374965E-4,-1.3141192E-1,2.0922107E-1,-2.3713571E-1,-3.204553E-2,1.2765072E-1,2.6546478E-1,-8.277373E-3,-1.8553789E-1,-6.379837E-2,2.471046E-2,2.128848E-3,4.5383144E-3,5.961293E-3,8.351771E-3,-5.8791945E-3,-3.4977896E-3,-4.5622177E-3,-7.176813E-4,1.08894346E-4,1.2501031E-3],"categories":[],"categories_nodes":[],"categories_segments":[],"categories_sizes":[],"default_left":[0,0,0,0,0,0,0,0,0,0,0,0,0,0,0,0,0,0,0,0,0],"id":10,"left_children":[1,3,5,7,9,11,13,-1,15,17,19,-1,-1,-1,-1,-1,-1,-1,-1,-1,-1],"loss_changes":[1.1155003E1,2.5977378E0,6.864004E-1,3.0199432E-1,2.3405565E-1,1.0392237E-1,9.311485E-2,0E0,6.976271E-2,3.089923E-1,1.9217795E-2,0E0,0E0,0E0,0E0,0E0,0E0,0E0,0E0,0E0,0E0],"parents":[2147483647,0,0,1,1,2,2,3,3,4,4,5,5,6,6,8,8,9,9,10,10],"right_children":[2,4,6,8,10,12,14,-1,16,18,20,-1,-1,-1,-1,-1,-1,-1,-1,-1,-1],"split_conditions":[3.509249E-1,6.8607634E-1,4.261408E-1,2.0156103E-1,6.9984245E-1,7.2990465E-1,4.7749436E-1,-8.277373E-3,5.871862E-1,7.166269E-1,8.709273E-1,2.128848E-3,4.5383144E-3,5.961293E-3,8.351771E-3,-5.8791945E-3,-3.4977896E-3,-4.5622177E-3,-7.176813E-4,1.08894346E-4,1.2501031E-3],"split_indices":[4,2,4,4,6,6,4,0,6,2,0,0,0,0,0,0,0,0,0,0,0],"split_type":[0,0,0,0,0,0,0,0,0,0,0,0,0,0,0,0,0,0,0,0,0],"sum_hessian":[4.03E2,2.47E2,1.56E2,1.19E2,1.28E2,6.5E1,9.1E1,5.4E1,6.5E1,8.2E1,4.6E1,2.7E1,3.8E1,3.7E1,5.4E1,4.5E1,2E1,2.2E1,6E1,2.3E1,2.3E1],"tree_param":{"num_deleted":"0","num_feature":"8","num_nodes":"21","size_leaf_vector":"1"}},{"base_weights":[4.0844516E-3,-1.3217385E-1,2.0761617E-1,-2.3435256E-1,-3.694525E-2,1.2823313E-1,2.5844103E-1,-8.244019E-3,-1.7981473E-1,-3.81648E-3,-1.736243E-2,9.1786824E-2,5.6717875E-3,6.0928725E-3,8.520599E-3,-5.700759E-3,-3.5480116E-3,-2.3143957E-3,6.6341217E-6,3.0467531E-3,1.9275071E-3],"categories":[],"categories_nodes":[],"categories_segments":[],"categories_sizes":[],"default_left":[0,0,0,0,0,0,0,0,0,0,0,0,0,0,0,0,0,0,0,0,0],"id":11,"left_children":[1,3,5,7,9,11,13,-1,15,-1,17,19,-1,-1,-1,-1,-1,-1,-1,-1,-1],"loss_changes":[1.1342459E1,2.3752737E0,6.285391E-1,3.2820272E-1,2.4567452E-1,1.5881312E-1,1.1883402E-1,0E0,5.3682804E-2,0E0,1.236548E-1,1.03416145E-2,0E0,0E0,0E0,0E0,0E0,0E0,0E0,0E0,0E0],"parents":[2147483647,0,0,1,1,2,2,3,3,4,4,5,5,6,6,8,8,10,10,11,11],"right_children":[2,4,6,8,10,12,14,-1,16,-1,18,20,-1,-1,-1,-1,-1,-1,-1,-1,-1],"split_conditions":[3.509249E-1,6.8607634E-1,4.261408E-1,1.9913115E-1,4.9460673E-1,8.339048E-1,7.004771E-1,-8.244019E-3,2.5543526E-1,-3.81648E-3,5.217172E-1,8.5709745E-1,5.6717875E-3,6.0928725E-3,8.520599E-3,-5.700759E-3,-3.5480116E-3,-2.3143957E-3,6.6341217E-6,3.0467531E-3,1.9275071E-3],"split_indices":[4,2,4,4,6,2,1,0,4,0,1,0,0,0,0,0,0,0,0,0,0],"split_type":[0,0,0,0,0,0,0,0,0,0,0,0,0,0,0,0,0,0,0,0,0],"sum_hessian":[4.07E2,2.44E2,1.63E2,1.17E2,1.27E2,6.5E1,9.8E1,5.4E1,6.3E1,2E1,1.07E2,4.5E1,2E1,5.4E1,4.4E1,4.2E1,2.1E1,2.2E1,8.5E1,2.4E1,2.1E1],"tree_param":{"num_deleted":"0","num_feature":"8","num_nodes":"21","size_leaf_vector":"1"}},{"base_weights":[-1.6621012E-3,-1.3395573E-1,2.1001843E-1,-2.2758342E-1,-4.00054E-2,1.648212E-1,8.186389E-3,-7.972106E-3,-1.7705393E-1,-6.385372E-2,1.2607378E-3,1.1181137E-1,5.945856E-3,-5.668121E-3,-3.2597408E-3,-3.8393768E-3,-6.9535844E-4,2.2049723E-3,3.6899438E-3],"categories":[],"categories_nodes":[],"categories_segments":[],"categories_sizes":[],"default_left":[0,0,0,0,0,0,0,0,0,0,0,0,0,0,0,0,0,0,0],"id":12,"left_children":[1,3,5,7,9,11,-1,-1,13,15,-1,17,-1,-1,-1,-1,-1,-1,-1],"loss_changes":[1.1285733E1,2.1723914E0,5.227914E-1,3.024211E-1,2.5595048E-1,2.2991252E-1,0E0,0E0,7.93159E-2,2.7574912E-1,0E0,2.2281885E-2,0E0,0E0,0E0,0E0,0E0,0E0,0E0],"parents":[2147483647,0,0,1,1,2,2,3,3,4,4,5,5,8,8,9,9,11,11],"right_children":[2,4,6,8,10,12,-1,-1,14,16,-1,18,-1,-1,-1,-1,-1,-1,-1],"split_conditions":[3.509249E-1,6.8607634E-1,6.990984E-1,1.9913115E-1,8.855304E-1,4.261408E-1,8.186389E-3,-7.972106E-3,5.97799E-1,2.7284712E-1,1.2607378E-3,7.030362E-1,5.945856E-3,-5.668121E-3,-3.2597408E-3,-3.8393768E-3,-6.9535844E-4,2.2049723E-3,3.6899438E-3],"split_indices":[4,2,1,4,0,4,0,0,6,4,0,7,0,0,0,0,0,0,0],"split_type":[0,0,0,0,0,0,0,0,0,0,0,0,0,0,0,0,0,0,0],"sum_hessian":[4.01E2,2.47E2,1.54E2,1.23E2,1.24E2,1.01E2,5.3E1,5.6E1,6.7E1,9.7E1,2.7E1,4.9E1,5.2E1,4.6E1,2.1E1,3.3E1,6.4E1,2E1,2.9E1],"tree_param":{"num_deleted":"0","num_feature":"8","num_nodes":"19","size_leaf_vector":"1"}},{"base_weights":[-4.052094E-3,-1.20172374E-1,2.0178904E-1,-2.0807114E-1,-2.8558908E-2,1.636633E-1,7.871366E-3,-2.453519E-1,-2.2437605E-3,-3.0108534E-3,-9.3711616E-4,1.1034623E-1,2.0528005E-1,-7.854677E-3,-5.6619127E-3,-9.374408E-4,1.0068737E-3,2.3653444E-3,3.7916438E-3,4.6379357E-3,6.3246894E-3],"categories":[],"categories_nodes":[],"categories_segments":[],"categories_sizes":[],"default_left":[0,0,0,0,0,0,0,0,0,0,0,0,0,0,0,0,0,0,0,0,0],"id":13,"left_children":[1,3,5,7,9,11,-1,13,-1,-1,15,17,19,-1,-1,-1,-1,-1,-1,-1,-1],"loss_changes":[9.609084E0,2.0636046E0,3.880682E-1,6.063762E-1,2.7580768E-1,1.9923663E-1,0E0,9.531546E-2,0E0,0E0,1.145879E-1,1.8267334E-2,6.798029E-3,0E0,0E0,0E0,0E0,0E0,0E0,0E0,0E0],"parents":[2147483647,0,0,1,1,2,2,3,3,4,4,5,5,7,7,10,10,11,11,12,12],"right_children":[2,4,6,8,10,12,-1,14,-1,-1,16,18,20,-1,-1,-1,-1,-1,-1,-1,-1],"split_conditions":[3.6249793E-1,2.5592655E-1,7.049852E-1,6.934846E-1,7.0411885E-1,4.2051494E-1,7.871366E-3,1.8887253E-1,-2.2437605E-3,-3.0108534E-3,3.1176618E-1,7.3495936E-1,4.6032816E-1,-7.854677E-3,-5.6619127E-3,-9.374408E-4,1.0068737E-3,2.3653444E-3,3.7916438E-3,4.6379357E-3,6.3246894E-3],"split_indices":[4,4,1,2,2,4,0,4,0,0,4,7,4,0,0,0,0,0,0,0,0],"split_type":[0,0,0,0,0,0,0,0,0,0,0,0,0,0,0,0,0,0,0,0,0],"sum_hessian":[4E2,2.56E2,1.44E2,1.3E2,1.26E2,9.9E1,4.5E1,1E2,3E1,3.2E1,9.4E1,4.5E1,5.4E1,5.3E1,4.7E1,5E1,4.4E1,2.4E1,2.1E1,2.1E1,3.3E1],"tree_param":{"num_deleted":"0","num_feature":"8","num_nodes":"21","size_leaf_vector":"1"}},{"base_weights":[1.1856157E-3,-1.3036577E-1,1.755784E-1,-2.1501638E-1,-3.9317653E-2,8.549842E-2,2.2803022E-1,-7.610362E-3,-1.6822746E-1,-6.0884003E-2,1.0961343E-3,7.1357575E-4,1.1704832E-1,5.180023E-3,7.6223807E-3,-5.2733235E-3,-3.2447977E-3,-3.0755715E-3,-3.59119E-5,3.8566827E-3,2.5681558E-3],"categories":[],"categories_nodes":[],"categories_segments":[],"categories_sizes":[],"default_left":[0,0,0,0,0,0,0,0,0,0,0,0,0,0,0,0,0,0,0,0,0],"id":14,"left_children":[1,3,5,7,9,11,13,-1,15,17,-1,-1,19,-1,-1,-1,-1,-1,-1,-1,-1],"loss_changes":[9.337185E0,1.7796345E0,8.0735445E-1,2.686882E-1,1.9331247E-1,1.2214959E-1,1.5792847E-1,0E0,4.832995E-2,2.578423E-1,0E0,0E0,9.767771E-3,0E0,0E0,0E0,0E0,0E0,0E0,0E0,0E0],"parents":[2147483647,0,0,1,1,2,2,3,3,4,4,5,5,6,6,8,8,9,9,12,12],"right_children":[2,4,6,8,10,12,14,-1,16,18,-1,-1,20,-1,-1,-1,-1,-1,-1,-1,-1],"split_conditions":[3.3838075E-1,6.8712145E-1,8.133104E-1,1.9913115E-1,8.8128674E-1,3.6249793E-1,6.990984E-1,-7.610362E-3,6.1725587E-1,2.8858253E-1,1.0961343E-3,7.1357575E-4,8.602813E-1,5.180023E-3,7.6223807E-3,-5.2733235E-3,-3.2447977E-3,-3.0755715E-3,-3.59119E-5,3.8566827E-3,2.5681558E-3],"split_indices":[4,2,2,4,0,4,1,0,7,4,0,0,0,0,0,0,0,0,0,0,0],"split_type":[0,0,0,0,0,0,0,0,0,0,0,0,0,0,0,0,0,0,0,0,0],"sum_hessian":[4.05E2,2.31E2,1.74E2,1.19E2,1.12E2,6.5E1,1.09E2,5.2E1,6.7E1,8.8E1,2.4E1,2.3E1,4.2E1,5.7E1,5.2E1,4.7E1,2E1,4.8E1,4E1,2.1E1,2.1E1],"tree_param":{"num_deleted":"0","num_feature":"8","num_nodes":"21","size_leaf_vector":"1"}},{"base_weights":[-1.6745005E-3,-1.1871127E-1,1.8309219E-1,-2.1194494E-1,-4.3276392E-2,1.1119911E-1,2.3424041E-1,-7.4011255E-3,-1.7058328E-1,-4.686378E-3,-1.8818779E-2,7.756132E-2,5.1333914E-3,5.17308E-3,7.4295574E-3,-5.878432E-3,-3.963704E-3,-1.1015726E-3,1.1892433E-3,1.3511532E-3,2.8850238E-3],"categories":[],"categories_nodes":[],"categories_segments":[],"categories_sizes":[],"default_left":[0,0,0,0,0,0,0,0,0,0,0,0,0,0,0,0,0,0,0,0,0],"id":15,"left_children":[1,3,5,7,9,11,13,-1,15,-1,17,19,-1,-1,-1,-1,-1,-1,-1,-1,-1],"loss_changes":[8.866153E0,1.7561283E0,5.5862856E-1,1.940589E-1,4.2006257E-1,1.495781E-1,9.080601E-2,0E0,4.459107E-2,0E0,1.4894277E-1,3.0635357E-2,0E0,0E0,0E0,0E0,0E0,0E0,0E0,0E0,0E0],"parents":[2147483647,0,0,1,1,2,2,3,3,4,4,5,5,6,6,8,8,10,10,11,11],"right_children":[2,4,6,8,10,12,14,-1,16,-1,18,20,-1,-1,-1,-1,-1,-1,-1,-1,-1],"split_conditions":[3.509249E-1,6.7750955E-1,4.261408E-1,1.8887253E-1,4.907832E-1,8.339048E-1,4.9175844E-1,-7.4011255E-3,4.872319E-1,-4.686378E-3,8.855304E-1,3.8982877E-1,5.1333914E-3,5.17308E-3,7.4295574E-3,-5.878432E-3,-3.963704E-3,-1.1015726E-3,1.1892433E-3,1.3511532E-3,2.8850238E-3],"split_indices":[4,2,4,4,6,2,4,0,7,0,0,4,0,0,0,0,0,0,0,0,0],"split_type":[0,0,0,0,0,0,0,0,0,0,0,0,0,0,0,0,0,0,0,0,0],"sum_hessian":[4.08E2,2.5E2,1.58E2,1.11E2,1.39E2,6.7E1,9.1E1,4.7E1,6.4E1,2.2E1,1.17E2,4.7E1,2E1,3.7E1,5.4E1,2.5E1,3.9E1,8.8E1,2.9E1,2.3E1,2.4E1],"tree_param":{"num_deleted":"0","num_feature":"8","num_nodes":"21","size_leaf_vector":"1"}},{"base_weights":[3.603601E-4,-1.188294E-1,1.662481E-1,-2.0066577E-1,-3.2480117E-2,9.338496E-2,2.2635497E-1,-7.0886104E-3,-1.5726058E-1,-3.7864468E-3,-7.35922E-3,5.0939154E-2,4.006649E-3,4.819303E-3,7.2433664E-3,-5.036412E-3,-2.8629883E-3,-7.3611044E-4,1.5835578E-3,6.304353E-4,2.1336786E-3],"categories":[],"categories_nodes":[],"categories_segments":[],"categories_sizes":[],"default_left":[0,0,0,0,0,0,0,0,0,0,0,0,0,0,0,0,0,0,0,0,0],"id":16,"left_children":[1,3,5,7,9,11,13,-1,15,-1,17,19,-1,-1,-1,-1,-1,-1,-1,-1,-1],"loss_changes":[8.08678E0,1.6753125E0,7.277689E-1,2.343235E-1,2.998235E-1,1.579932E-1,1.1646891E-1,0E0,6.5977454E-2,0E0,1.1564616E-1,2.9680528E-2,0E0,0E0,0E0,0E0,0E0,0E0,0E0,0E0,0E0],"parents":[2147483647,0,0,1,1,2,2,3,3,4,4,5,5,6,6,8,8,10,10,11,11],"right_children":[2,4,6,8,10,12,14,-1,16,-1,18,20,-1,-1,-1,-1,-1,-1,-1,-1,-1],"split_conditions":[3.3838075E-1,6.8712145E-1,4.261408E-1,1.9913115E-1,4.9460673E-1,7.9278004E-1,4.9175844E-1,-7.0886104E-3,5.97799E-1,-3.7864468E-3,4.3508014E-1,6.657804E-1,4.006649E-3,4.819303E-3,7.2433664E-3,-5.036412E-3,-2.8629883E-3,-7.3611044E-4,1.5835578E-3,6.304353E-4,2.1336786E-3],"split_indices":[4,2,4,4,6,2,4,0,6,0,5,6,0,0,0,0,0,0,0,0,0],"split_type":[0,0,0,0,0,0,0,0,0,0,0,0,0,0,0,0,0,0,0,0,0],"sum_hessian":[4.07E2,2.37E2,1.7E2,1.21E2,1.16E2,7.8E1,9.2E1,5.3E1,6.8E1,2.2E1,9.4E1,4.3E1,3.5E1,3.6E1,5.6E1,4.7E1,2.1E1,7.3E1,2.1E1,2.1E1,2.2E1],"tree_param":{"num_deleted":"0","num_feature":"8","num_nodes":"21","size_leaf_vector":"1"}},{"base_weights":[-3.4813746E-3,-1.2026621E-1,1.6072483E-1,-2.1230598E-1,-4.2765424E-2,8.855235E-2,2.2095202E-1,-7.2242217E-3,-1.7132187E-1,-3.7044524E-3,-2.1537926E-2,4.6947904E-2,3.8458232E-3,5.072423E-3,7.2275195E-3,-5.2780835E-3,-3.6931296E-3,-1.0791831E-3,9.143445E-4,5.552825E-4,1.9911344E-3],"categories":[],"categories_nodes":[],"categories_segments":[],"categories_sizes":[],"default_left":[0,0,0,0,0,0,0,0,0,0,0,0,0,0,0,0,0,0,0,0,0],"id":17,"left_children":[1,3,5,7,9,11,13,-1,15,-1,17,19,-1,-1,-1,-1,-1,-1,-1,-1,-1],"loss_changes":[7.843462E0,1.6957443E0,7.1938086E-1,1.5666533E-1,2.4504825E-1,1.5261698E-1,8.8605404E-2,0E0,1.4991164E-2,0E0,9.901347E-2,2.7238607E-2,0E0,0E0,0E0,0E0,0E0,0E0,0E0,0E0,0E0],"parents":[2147483647,0,0,1,1,2,2,3,3,4,4,5,5,6,6,8,8,10,10,11,11],"right_children":[2,4,6,8,10,12,14,-1,16,-1,18,20,-1,-1,-1,-1,-1,-1,-1,-1,-1],"split_conditions":[3.3838075E-1,6.7750955E-1,4.261408E-1,1.8887253E-1,4.9460673E-1,8.0240315E-1,7.004771E-1,-7.2242217E-3,5.818098E-1,-3.7044524E-3,8.82235E-1,6.657804E-1,3.8458232E-3,5.072423E-3,7.2275195E-3,-5.2780835E-3,-3.6931296E-3,-1.0791831E-3,9.143445E-4,5.552825E-4,1.9911344E-3],"split_indices":[4,2,4,4,6,2,1,0,6,0,0,6,0,0,0,0,0,0,0,0,0],"split_type":[0,0,0,0,0,0,0,0,0,0,0,0,0,0,0,0,0,0,0,0,0],"sum_hessian":[4.07E2,2.38E2,1.69E2,1.08E2,1.3E2,7.8E1,9.1E1,4.9E1,5.9E1,2.4E1,1.06E2,4.3E1,3.5E1,4.6E1,4.5E1,3.9E1,2E1,8.1E1,2.5E1,2.1E1,2.2E1],"tree_param":{"num_deleted":"0","num_feature":"8","num_nodes":"21","size_leaf_vector":"1"}},{"base_weights":[7.4607646E-4,-1.0163708E-1,1.72302E-1,-2.062101E-1,-3.646776E-2,1.3070334E-1,6.747485E-3,-6.795012E-3,-1.7062499E-1,-8.317042E-2,2.4222834E-3,2.2897213E-3,1.5981737E-1,-5.604297E-3,-4.086737E-3,-4.1208654E-3,-1.1189751E-3,-8.5976155E-4,7.672123E-4,3.361629E-3,4.992715E-3],"categories":[],"categories_nodes":[],"categories_segments":[],"categories_sizes":[],"default_left":[0,0,0,0,0,0,0,0,0,0,0,0,0,0,0,0,0,0,0,0,0],"id":18,"left_children":[1,3,5,7,9,11,-1,-1,13,15,17,-1,19,-1,-1,-1,-1,-1,-1,-1,-1],"loss_changes":[6.9554653E0,1.6825881E0,3.870182E-1,7.956362E-2,2.7990684E-1,1.2153602E-1,0E0,0E0,8.003712E-3,1.8693614E-1,7.074935E-2,0E0,2.0516157E-2,0E0,0E0,0E0,0E0,0E0,0E0,0E0,0E0],"parents":[2147483647,0,0,1,1,2,2,3,3,4,4,5,5,8,8,9,9,10,10,12,12],"right_children":[2,4,6,8,10,12,-1,-1,14,16,18,-1,20,-1,-1,-1,-1,-1,-1,-1,-1],"split_conditions":[3.5973415E-1,6.646294E-1,4.9175844E-1,1.8887253E-1,7.2617143E-1,8.0623704E-1,6.747485E-3,-6.795012E-3,4.872319E-1,2.430826E-1,6.4476216E-1,2.2897213E-3,6.535292E-1,-5.604297E-3,-4.086737E-3,-4.1208654E-3,-1.1189751E-3,-8.5976155E-4,7.672123E-4,3.361629E-3,4.992715E-3],"split_indices":[4,2,4,4,2,2,0,0,7,4,6,0,1,0,0,0,0,0,0,0,0],"split_type":[0,0,0,0,0,0,0,0,0,0,0,0,0,0,0,0,0,0,0,0,0],"sum_hessian":[3.94E2,2.47E2,1.47E2,9.4E1,1.53E2,9.3E1,5.4E1,4.4E1,5E1,6.9E1,8.4E1,3.6E1,5.7E1,2E1,3E1,2.7E1,4.2E1,3.6E1,4.8E1,2E1,3.7E1],"tree_param":{"num_deleted":"0","num_feature":"8","num_nodes":"21","size_leaf_vector":"1"}},{"base_weights":[1.301035E-3,-1.1650847E-1,1.5257175E-1,-2.1596406E-1,-5.502131E-2,8.2640596E-2,2.0998688E-1,-7.617636E-3,-5.47912E-3,-1.0238139E-1,-5.522064E-3,4.363507E-2,3.725509E-3,1.8925604E-1,7.338E-3,-5.25946E-3,-1.7209763E-3,-1.5042588E-3,8.359084E-4,3.9053746E-4,1.8847375E-3,4.1648387E-3,5.706893E-3],"categories":[],"categories_nodes":[],"categories_segments":[],"categories_sizes":[],"default_left":[0,0,0,0,0,0,0,0,0,0,0,0,0,0,0,0,0,0,0,0,0,0,0],"id":19,"left_children":[1,3,5,7,9,11,13,-1,-1,15,17,19,-1,21,-1,-1,-1,-1,-1,-1,-1,-1,-1],"loss_changes":[7.164048E0,1.3701625E0,6.893053E-1,4.6272755E-2,3.299793E-1,1.5223974E-1,5.2654743E-2,0E0,0E0,2.3975772E-1,1.2026231E-1,3.1869806E-2,0E0,1.1013985E-2,0E0,0E0,0E0,0E0,0E0,0E0,0E0,0E0,0E0],"parents":[2147483647,0,0,1,1,2,2,3,3,4,4,5,5,6,6,9,9,10,10,11,11,13,13],"right_children":[2,4,6,8,10,12,14,-1,-1,16,18,20,-1,22,-1,-1,-1,-1,-1,-1,-1,-1,-1],"split_conditions":[3.3838075E-1,6.544862E-1,4.261408E-1,1.4409874E-1,6.3111144E-1,8.0240315E-1,9.002733E-1,-7.617636E-3,-5.47912E-3,2.4504888E-1,5.5849004E-1,6.657804E-1,3.725509E-3,7.327746E-1,7.338E-3,-5.25946E-3,-1.7209763E-3,-1.5042588E-3,8.359084E-4,3.9053746E-4,1.8847375E-3,4.1648387E-3,5.706893E-3],"split_indices":[4,2,4,4,6,2,2,0,0,4,1,6,0,6,0,0,0,0,0,0,0,0,0],"split_type":[0,0,0,0,0,0,0,0,0,0,0,0,0,0,0,0,0,0,0,0,0,0,0],"sum_hessian":[4E2,2.25E2,1.75E2,8.5E1,1.4E2,8E1,9.5E1,2E1,6.5E1,7.1E1,6.9E1,4.6E1,3.4E1,7.1E1,2.4E1,2.2E1,4.9E1,2.9E1,4E1,2.1E1,2.5E1,2.1E1,5E1],"tree_param":{"num_deleted":"0","num_feature":"8","num_nodes":"23","size_leaf_vector":"1"}},{"base_weights":[-5.1586027E-3,-1.1172944E-1,1.4628142E-1,-1.8850021E-1,-3.267186E-2,8.238677E-2,2.0764384E-1,-2.1411744E-1,-3.5562778E-3,-3.491644E-3,-1.1101664E-2,5.5371687E-2,4.4434383E-3,4.6035587E-3,6.549647E-3,-6.447043E-3,-4.4458583E-3,-1.1009326E-3,7.1028265E-4,6.9354055E-4,2.1997935E-3],"categories":[],"categories_nodes":[],"categories_segments":[],"categories_sizes":[],"default_left":[0,0,0,0,0,0,0,0,0,0,0,0,0,0,0,0,0,0,0,0,0],"id":20,"left_children":[1,3,5,7,9,11,13,15,-1,-1,17,19,-1,-1,-1,-1,-1,-1,-1,-1,-1],"loss_changes":[6.407424E0,1.4079907E0,6.258924E-1,1.599021E-1,2.2796349E-1,1.5923285E-1,5.4580927E-2,3.4359455E-2,0E0,0E0,9.814544E-2,4.173118E-2,0E0,0E0,0E0,0E0,0E0,0E0,0E0,0E0,0E0],"parents":[2147483647,0,0,1,1,2,2,3,3,4,4,5,5,6,6,7,7,10,10,11,11],"right_children":[2,4,6,8,10,12,14,16,-1,-1,18,20,-1,-1,-1,-1,-1,-1,-1,-1,-1],"split_conditions":[3.3838075E-1,6.8712145E-1,4.261408E-1,2.430826E-1,4.9460673E-1,8.339048E-1,4.9175844E-1,5.871862E-1,-3.5562778E-3,-3.491644E-3,6.9984245E-1,7.6459163E-1,4.4434383E-3,4.6035587E-3,6.549647E-3,-6.447043E-3,-4.4458583E-3,-1.1009326E-3,7.1028265E-4,6.9354055E-4,2.1997935E-3],"split_indices":[4,2,4,4,6,2,4,6,0,0,6,2,0,0,0,0,0,0,0,0,0],"split_type":[0,0,0,0,0,0,0,0,0,0,0,0,0,0,0,0,0,0,0,0,0],"sum_hessian":[3.95E2,2.32E2,1.63E2,1.17E2,1.15E2,8.1E1,8.2E1,8.1E1,3.6E1,2.1E1,9.4E1,6.1E1,2E1,3.3E1,4.9E1,6.1E1,2E1,5.3E1,4.1E1,2.7E1,3.4E1],"tree_param":{"num_deleted":"0","num_feature":"8","num_nodes":"21","size_leaf_vector":"1"}},{"base_weights":[-3.0296335E-3,-1.4123803E-1,1.0668299E-1,-1.8077964E-1,-6.1118916E-2,1.9502051E-2,1.7123523E-1,-2.0221101E-1,-3.1221516E-3,-3.0611989E-3,-6.6842313E-4,-8.38958E-3,3.3563862E-3,1.3751914E-1,6.118497E-3,-6.2603536E-3,-3.842885E-3,-1.570792E-3,3.3744355E-4,2.6242202E-3,4.3730172E-3],"categories":[],"categories_nodes":[],"categories_segments":[],"categories_sizes":[],"default_left":[0,0,0,0,0,0,0,0,0,0,0,0,0,0,0,0,0,0,0,0,0],"id":21,"left_children":[1,3,5,7,9,11,13,15,-1,-1,-1,17,-1,19,-1,-1,-1,-1,-1,-1,-1],"loss_changes":[6.0651875E0,5.4969335E-1,1.2516434E0,1.5354538E-1,1.0462187E-1,2.6879576E-1,1.7129016E-1,8.9981556E-2,0E0,0E0,0E0,7.440243E-2,0E0,4.720235E-2,0E0,0E0,0E0,0E0,0E0,0E0,0E0],"parents":[2147483647,0,0,1,1,2,2,3,3,4,4,5,5,6,6,7,7,11,11,13,13],"right_children":[2,4,6,8,10,12,14,16,-1,-1,-1,18,-1,20,-1,-1,-1,-1,-1,-1,-1],"split_conditions":[7.287931E-1,6.8607634E-1,3.8510352E-1,6.01442E-1,3.3611095E-1,6.369186E-1,4.9175844E-1,2.384012E-1,-3.1221516E-3,-3.0611989E-3,-6.6842313E-4,3.4890863E-1,3.3563862E-3,7.159326E-1,6.118497E-3,-6.2603536E-3,-3.842885E-3,-1.570792E-3,3.3744355E-4,2.6242202E-3,4.3730172E-3],"split_indices":[2,2,4,6,5,1,4,4,0,0,0,5,0,7,0,0,0,0,0,0,0],"split_type":[0,0,0,0,0,0,0,0,0,0,0,0,0,0,0,0,0,0,0,0,0],"sum_hessian":[3.98E2,1.76E2,2.22E2,1.17E2,5.9E1,9.5E1,1.27E2,8.8E1,2.9E1,2.5E1,3.4E1,7.5E1,2E1,7.6E1,5.1E1,6.5E1,2.3E1,2.2E1,5.3E1,2.4E1,5.2E1],"tree_param":{"num_deleted":"0","num_feature":"8","num_nodes":"21","size_leaf_vector":"1"}},{"base_weights":[3.6844048E-3,-8.828369E-2,1.585538E-1,-1.7907956E-1,-2.5989221E-2,1.22895904E-1,6.2061846E-3,-6.3808844E-3,-1.3540593E-1,-5.5258397E-2,3.5410453E-2,9.643789E-2,4.855344E-3,-4.803793E-3,-3.0852465E-3,-2.9164E-3,-6.534361E-4,3.0042193E-4,1.733795E-3,1.9505137E-3,3.4299702E-3],"categories":[],"categories_nodes":[],"categories_segments":[],"categories_sizes":[],"default_left":[0,0,0,0,0,0,0,0,0,0,0,0,0,0,0,0,0,0,0,0,0],"id":22,"left_children":[1,3,5,7,9,11,-1,-1,13,15,17,19,-1,-1,-1,-1,-1,-1,-1,-1,-1],"loss_changes":[5.810916E0,1.4433025E0,3.1124783E-1,1.8785071E-1,2.7691576E-1,1.1427748E-1,0E0,0E0,3.311622E-2,1.592415E-1,3.187014E-2,3.7974954E-2,0E0,0E0,0E0,0E0,0E0,0E0,0E0,0E0,0E0],"parents":[2147483647,0,0,1,1,2,2,3,3,4,4,5,5,8,8,9,9,10,10,11,11],"right_children":[2,4,6,8,10,12,-1,-1,14,16,18,20,-1,-1,-1,-1,-1,-1,-1,-1,-1],"split_conditions":[3.5973415E-1,6.7750955E-1,6.990984E-1,1.8887253E-1,4.0697533E-1,4.6032816E-1,6.2061846E-3,-6.3808844E-3,4.872319E-1,7.166269E-1,3.1176618E-1,8.0572957E-1,4.855344E-3,-4.803793E-3,-3.0852465E-3,-2.9164E-3,-6.534361E-4,3.0042193E-4,1.733795E-3,1.9505137E-3,3.4299702E-3],"split_indices":[4,2,1,4,5,4,0,0,7,2,4,2,0,0,0,0,0,0,0,0,0],"split_type":[0,0,0,0,0,0,0,0,0,0,0,0,0,0,0,0,0,0,0,0,0],"sum_hessian":[4.06E2,2.55E2,1.51E2,1.03E2,1.52E2,9.8E1,5.3E1,4.7E1,5.6E1,1.03E2,4.9E1,6.6E1,3.2E1,2.1E1,3.5E1,4E1,6.3E1,2.6E1,2.3E1,3.4E1,3.2E1],"tree_param":{"num_deleted":"0","num_feature":"8","num_nodes":"21","size_leaf_vector":"1"}},{"base_weights":[-3.8319542E-3,-9.084616E-2,1.53794E-1,-1.4651984E-1,-3.7158888E-3,1.1049717E-1,2.05512E-1,-1.7684713E-1,-5.566279E-2,-3.567044E-2,2.7695611E-2,1.9673957E-3,1.35999E-1,4.9978145E-3,6.5877363E-3,-5.4549607E-3,-3.201569E-3,-2.3206123E-3,-7.31361E-4,-1.9945533E-3,2.9580608E-5,3.0566283E-4,1.2381603E-3,3.1318858E-3,4.376274E-3],"categories":[],"categories_nodes":[],"categories_segments":[],"categories_sizes":[],"default_left":[0,0,0,0,0,0,0,0,0,0,0,0,0,0,0,0,0,0,0,0,0,0,0,0,0],"id":23,"left_children":[1,3,5,7,9,11,13,15,17,19,21,-1,23,-1,-1,-1,-1,-1,-1,-1,-1,-1,-1,-1,-1],"loss_changes":[5.513966E0,1.2558291E0,2.975006E-1,4.2551708E-1,1.0336944E-1,7.2980046E-2,9.500027E-3,1.0684323E-1,3.0601174E-2,6.628561E-2,1.3850827E-2,0E0,5.92345E-3,0E0,0E0,0E0,0E0,0E0,0E0,0E0,0E0,0E0,0E0,0E0,0E0],"parents":[2147483647,0,0,1,1,2,2,3,3,4,4,5,5,6,6,7,7,8,8,9,9,10,10,12,12],"right_children":[2,4,6,8,10,12,14,16,18,20,22,-1,24,-1,-1,-1,-1,-1,-1,-1,-1,-1,-1,-1,-1],"split_conditions":[3.5973415E-1,7.166269E-1,4.6212754E-1,2.6228574E-1,3.8384137E-1,8.0623704E-1,8.8434833E-1,6.2629175E-1,5.193787E-1,2.9674658E-1,8.600384E-1,1.9673957E-3,7.98507E-1,4.9978145E-3,6.5877363E-3,-5.4549607E-3,-3.201569E-3,-2.3206123E-3,-7.31361E-4,-1.9945533E-3,2.9580608E-5,3.0566283E-4,1.2381603E-3,3.1318858E-3,4.376274E-3],"split_indices":[4,2,4,4,5,2,2,6,1,4,3,0,7,0,0,0,0,0,0,0,0,0,0,0,0],"split_type":[0,0,0,0,0,0,0,0,0,0,0,0,0,0,0,0,0,0,0,0,0,0,0,0,0],"sum_hessian":[4E2,2.58E2,1.42E2,1.57E2,1.01E2,7.9E1,6.3E1,1.17E2,4E1,5E1,5.1E1,3.2E1,4.7E1,3.6E1,2.7E1,9E1,2.7E1,2E1,2E1,2.5E1,2.5E1,2.6E1,2.5E1,2.4E1,2.3E1],"tree_param":{"num_deleted":"0","num_feature":"8","num_nodes":"25","size_leaf_vector":"1"}},{"base_weights":[-1.5697531E-4,-1.3542506E-1,1.02161855E-1,-1.676981E-1,-4.259114E-2,3.688133E-2,1.7929967E-1,-1.9001003E-1,-2.5161349E-3,-2.3444863E-3,2.107693E-6,8.660125E-3,3.4058073E-3,1.501198E-1,6.0304045E-3,-6.672887E-3,-4.923706E-3,-5.244471E-4,1.4488914E-3,3.4051463E-3,4.5766695E-3],"categories":[],"categories_nodes":[],"categories_segments":[],"categories_sizes":[],"default_left":[0,0,0,0,0,0,0,0,0,0,0,0,0,0,0,0,0,0,0,0,0],"id":24,"left_children":[1,3,5,7,9,11,13,15,-1,-1,-1,17,-1,19,-1,-1,-1,-1,-1,-1,-1],"loss_changes":[5.688429E0,5.231552E-1,1.1717167E0,2.1126175E-1,8.200655E-2,3.038038E-1,7.83906E-2,2.8945208E-2,0E0,0E0,0E0,1.1479653E-1,0E0,3.234148E-3,0E0,0E0,0E0,0E0,0E0,0E0,0E0],"parents":[2147483647,0,0,1,1,2,2,3,3,4,4,5,5,6,6,7,7,11,11,13,13],"right_children":[2,4,6,8,10,12,14,16,-1,-1,-1,18,-1,20,-1,-1,-1,-1,-1,-1,-1],"split_conditions":[7.2617143E-1,2.6318428E-1,4.0955442E-1,6.2629175E-1,7.975603E-1,6.411549E-1,7.004771E-1,5.5169797E-1,-2.5161349E-3,-2.3444863E-3,2.107693E-6,3.3838075E-1,3.4058073E-3,6.1772466E-1,6.0304045E-3,-6.672887E-3,-4.923706E-3,-5.244471E-4,1.4488914E-3,3.4051463E-3,4.5766695E-3],"split_indices":[2,4,4,6,0,1,1,2,0,0,0,4,0,1,0,0,0,0,0,0,0],"split_type":[0,0,0,0,0,0,0,0,0,0,0,0,0,0,0,0,0,0,0,0,0],"sum_hessian":[4.09E2,1.76E2,2.33E2,1.3E2,4.6E1,1.27E2,1.06E2,1E2,3E1,2.3E1,2.3E1,9.6E1,3.1E1,6.1E1,4.5E1,2E1,8E1,5.9E1,3.7E1,2.2E1,3.9E1],"tree_param":{"num_deleted":"0","num_feature":"8","num_nodes":"21","size_leaf_vector":"1"}},{"base_weights":[-1.1392535E-3,-8.686501E-2,1.4460213E-1,-1.5518767E-1,-1.9976398E-2,1.1111165E-1,5.675202E-3,-1.7149346E-1,-1.8392543E-3,-2.7059459E-3,-5.2136956E-3,1.9671163E-3,1.352685E-1,-6.4200615E-3,-4.268402E-3,-6.696825E-4,9.939944E-4,3.278331E-3,4.548812E-3],"categories":[],"categories_nodes":[],"categories_segments":[],"categories_sizes":[],"default_left":[0,0,0,0,0,0,0,0,0,0,0,0,0,0,0,0,0,0,0],"id":25,"left_children":[1,3,5,7,9,11,-1,13,-1,-1,15,-1,17,-1,-1,-1,-1,-1,-1],"loss_changes":[5.060052E0,1.1622517E0,2.6630616E-1,1.730504E-1,1.46077E-1,8.6752534E-2,0E0,8.33292E-2,0E0,0E0,8.407272E-2,0E0,1.0789037E-2,0E0,0E0,0E0,0E0,0E0,0E0],"parents":[2147483647,0,0,1,1,2,2,3,3,4,4,5,5,7,7,10,10,12,12],"right_children":[2,4,6,8,10,12,-1,14,-1,-1,16,-1,18,-1,-1,-1,-1,-1,-1],"split_conditions":[3.5973415E-1,6.8712145E-1,4.9175844E-1,2.6228574E-1,4.876915E-1,8.0623704E-1,5.675202E-3,5.541445E-1,-1.8392543E-3,-2.7059459E-3,4.198746E-1,1.9671163E-3,6.9291186E-1,-6.4200615E-3,-4.268402E-3,-6.696825E-4,9.939944E-4,3.278331E-3,4.548812E-3],"split_indices":[4,2,4,4,7,2,0,2,0,0,5,0,1,0,0,0,0,0,0],"split_type":[0,0,0,0,0,0,0,0,0,0,0,0,0,0,0,0,0,0,0],"sum_hessian":[4.03E2,2.54E2,1.49E2,1.25E2,1.29E2,9.6E1,5.3E1,1.05E2,2E1,2E1,1.09E2,3.7E1,5.9E1,2.4E1,8.1E1,7.5E1,3.4E1,3.8E1,2.1E1],"tree_param":{"num_deleted":"0","num_feature":"8","num_nodes":"19","size_leaf_vector":"1"}},{"base_weights":[1.3334608E-3,-8.460038E-2,1.3992782E-1,-1.7129804E-1,-3.727526E-2,1.091557E-1,5.736572E-3,-5.60736E-3,-1.4464349E-1,-7.283133E-2,-3.81065E-4,1.0610204E-3,1.2824902E-1,-4.9207285E-3,-3.3002545E-3,-3.8799034E-3,-1.3614015E-3,-5.6863495E-4,1.0656947E-3,3.0611719E-3,4.237328E-3],"categories":[],"categories_nodes":[],"categories_segments":[],"categories_sizes":[],"default_left":[0,0,0,0,0,0,0,0,0,0,0,0,0,0,0,0,0,0,0,0,0],"id":26,"left_children":[1,3,5,7,9,11,-1,-1,13,15,17,-1,19,-1,-1,-1,-1,-1,-1,-1,-1],"loss_changes":[4.823456E0,1.0193592E0,2.8458667E-1,3.7662506E-2,2.137977E-1,1.4097226E-1,0E0,0E0,2.0050168E-2,1.2535095E-1,6.2447328E-2,0E0,2.014625E-2,0E0,0E0,0E0,0E0,0E0,0E0,0E0,0E0],"parents":[2147483647,0,0,1,1,2,2,3,3,4,4,5,5,8,8,9,9,10,10,12,12],"right_children":[2,4,6,8,10,12,-1,-1,14,16,18,-1,20,-1,-1,-1,-1,-1,-1,-1,-1],"split_conditions":[3.509249E-1,6.544862E-1,7.049852E-1,4.2274934E-1,7.2617143E-1,3.8982877E-1,5.736572E-3,-5.60736E-3,1.9732966E-1,2.17735E-1,7.159326E-1,1.0610204E-3,4.6032816E-1,-4.9207285E-3,-3.3002545E-3,-3.8799034E-3,-1.3614015E-3,-5.6863495E-4,1.0656947E-3,3.0611719E-3,4.237328E-3],"split_indices":[4,2,1,1,2,4,0,0,4,4,7,0,4,0,0,0,0,0,0,0,0],"split_type":[0,0,0,0,0,0,0,0,0,0,0,0,0,0,0,0,0,0,0,0,0],"sum_hessian":[4.03E2,2.49E2,1.54E2,8.7E1,1.62E2,1.06E2,4.8E1,3.9E1,4.8E1,8.2E1,8E1,2.3E1,8.3E1,2E1,2.8E1,2.1E1,6.1E1,5.3E1,2.7E1,4.8E1,3.5E1],"tree_param":{"num_deleted":"0","num_feature":"8","num_nodes":"21","size_leaf_vector":"1"}},{"base_weights":[-2.3894358E-5,-1.0495871E-1,1.0697872E-1,-1.631636E-1,-4.9036726E-2,3.7081905E-2,1.55015E-1,-5.5097374E-3,-3.6728764E-3,-4.104688E-3,-2.2179376E-2,6.3005523E-3,2.13469E-3,1.2072414E-1,5.506782E-3,-1.2525702E-3,2.2788114E-4,-6.8403553E-4,1.3164852E-3,2.5234635E-3,3.8669219E-3],"categories":[],"categories_nodes":[],"categories_segments":[],"categories_sizes":[],"default_left":[0,0,0,0,0,0,0,0,0,0,0,0,0,0,0,0,0,0,0,0,0],"id":27,"left_children":[1,3,5,7,9,11,13,-1,-1,-1,15,17,-1,19,-1,-1,-1,-1,-1,-1,-1],"loss_changes":[4.6036034E0,6.6577005E-1,6.7584133E-1,8.235264E-2,2.7586526E-1,1.0018069E-1,1.453309E-1,0E0,0E0,0E0,5.809862E-2,6.085377E-2,0E0,2.324754E-2,0E0,0E0,0E0,0E0,0E0,0E0,0E0],"parents":[2147483647,0,0,1,1,2,2,3,3,4,4,5,5,6,6,10,10,11,11,13,13],"right_children":[2,4,6,8,10,12,14,-1,-1,-1,16,18,-1,20,-1,-1,-1,-1,-1,-1,-1],"split_conditions":[3.1176618E-1,6.6826797E-1,8.0572957E-1,1.8887253E-1,4.907832E-1,8.006133E-1,7.004771E-1,-5.5097374E-3,-3.6728764E-3,-4.104688E-3,6.9984245E-1,6.903823E-1,2.13469E-3,4.261408E-1,5.506782E-3,-1.2525702E-3,2.2788114E-4,-6.8403553E-4,1.3164852E-3,2.5234635E-3,3.8669219E-3],"split_indices":[4,2,2,4,6,3,1,0,0,0,6,6,0,4,0,0,0,0,0,0,0],"split_type":[0,0,0,0,0,0,0,0,0,0,0,0,0,0,0,0,0,0,0,0,0],"sum_hessian":[4.08E2,2.06E2,2.02E2,1E2,1.06E2,8.3E1,1.19E2,4.7E1,5.3E1,2.2E1,8.4E1,4.7E1,3.6E1,6.7E1,5.2E1,4.8E1,3.6E1,2.7E1,2E1,2.6E1,4.1E1],"tree_param":{"num_deleted":"0","num_feature":"8","num_nodes":"21","size_leaf_vector":"1"}},{"base_weights":[1.3074917E-3,-1.1420361E-1,9.227948E-2,-1.6917372E-1,-6.328167E-2,3.4260657E-2,1.5648489E-1,-5.826987E-3,-1.3956253E-1,-9.646491E-2,-3.325508E-4,-2.728197E-3,1.0301919E-1,1.1591573E-1,5.412635E-3,-4.501459E-3,-3.3226225E-3,-4.593333E-3,-1.4823274E-3,-5.8321387E-4,8.169359E-4,2.1778955E-3,3.5046742E-3,2.6775107E-3,3.712561E-3],"categories":[],"categories_nodes":[],"categories_segments":[],"categories_sizes":[],"default_left":[0,0,0,0,0,0,0,0,0,0,0,0,0,0,0,0,0,0,0,0,0,0,0,0,0],"id":28,"left_children":[1,3,5,7,9,11,13,-1,15,17,-1,19,21,23,-1,-1,-1,-1,-1,-1,-1,-1,-1,-1,-1],"loss_changes":[4.2453732E0,4.875493E-1,8.365165E-1,6.7477465E-2,1.5931115E-1,3.05477E-1,1.350112E-1,0E0,3.4977794E-3,1.5842503E-1,0E0,4.59468E-2,1.3614893E-2,5.150497E-3,0E0,0E0,0E0,0E0,0E0,0E0,0E0,0E0,0E0,0E0,0E0],"parents":[2147483647,0,0,1,1,2,2,3,3,4,4,5,5,6,6,8,8,9,9,11,11,12,12,13,13],"right_children":[2,4,6,8,10,12,14,-1,16,18,-1,20,22,24,-1,-1,-1,-1,-1,-1,-1,-1,-1,-1,-1],"split_conditions":[7.287931E-1,6.544862E-1,6.411549E-1,1.6859403E-1,6.2347025E-1,3.8510352E-1,4.561496E-1,-5.826987E-3,2.8615156E-1,2.430826E-1,-3.325508E-4,7.159326E-1,7.2587544E-1,8.137305E-1,5.412635E-3,-4.501459E-3,-3.3226225E-3,-4.593333E-3,-1.4823274E-3,-5.8321387E-4,8.169359E-4,2.1778955E-3,3.5046742E-3,2.6775107E-3,3.712561E-3],"split_indices":[2,2,1,4,6,4,4,0,5,4,0,7,7,6,0,0,0,0,0,0,0,0,0,0,0],"split_type":[0,0,0,0,0,0,0,0,0,0,0,0,0,0,0,0,0,0,0,0,0,0,0,0,0],"sum_hessian":[4.02E2,1.77E2,2.25E2,8.4E1,9.3E1,1.19E2,1.06E2,3.4E1,5E1,5.6E1,3.7E1,7.8E1,4.1E1,5.2E1,5.4E1,2.2E1,2.8E1,2.1E1,3.5E1,5E1,2.8E1,2.1E1,2E1,2.6E1,2.6E1],"tree_param":{"num_deleted":"0","num_feature":"8","num_nodes":"25","size_leaf_vector":"1"}},{"base_weights":[-2.3319055E-3,-8.795852E-2,1.1490889E-1,-1.3352287E-1,-1.5597068E-2,6.259737E-2,1.584846E-1,-1.5295503E-1,-9.104089E-4,-4.093595E-2,1.4336317E-2,4.9254834E-4,9.525064E-2,1.3447864E-1,5.6338226E-3,-5.940057E-3,-3.8992786E-3,-1.9514401E-3,-3.6527097E-4,-1.5031455E-4,9.6270023E-4,1.7278821E-3,3.6750787E-3,2.797379E-3,4.186086E-3],"categories":[],"categories_nodes":[],"categories_segments":[],"categories_sizes":[],"default_left":[0,0,0,0,0,0,0,0,0,0,0,0,0,0,0,0,0,0,0,0,0,0,0,0,0],"id":29,"left_children":[1,3,5,7,9,11,13,15,-1,17,19,-1,21,23,-1,-1,-1,-1,-1,-1,-1,-1,-1,-1,-1],"loss_changes":[3.9955633E0,7.5625086E-1,3.7303734E-1,2.7206254E-1,6.884992E-2,1.1309183E-1,6.504631E-2,6.812596E-2,0E0,3.8169503E-2,1.6675383E-2,0E0,4.5992494E-2,1.6164303E-2,0E0,0E0,0E0,0E0,0E0,0E0,0E0,0E0,0E0,0E0,0E0],"parents":[2147483647,0,0,1,1,2,2,3,3,4,4,5,5,6,6,7,7,9,9,10,10,12,12,13,13],"right_children":[2,4,6,8,10,12,14,16,-1,18,20,-1,22,24,-1,-1,-1,-1,-1,-1,-1,-1,-1,-1,-1],"split_conditions":[3.3838075E-1,2.6191974E-1,4.261408E-1,6.9168186E-1,3.5361513E-1,7.030362E-1,5.4579574E-1,5.541445E-1,-9.104089E-4,2.961538E-1,8.1973886E-1,4.9254834E-4,8.2714057E-1,7.4601495E-1,5.6338226E-3,-5.940057E-3,-3.8992786E-3,-1.9514401E-3,-3.6527097E-4,-1.5031455E-4,9.6270023E-4,1.7278821E-3,3.6750787E-3,2.797379E-3,4.186086E-3],"split_indices":[4,4,4,7,5,7,4,2,0,4,3,0,2,6,0,0,0,0,0,0,0,0,0,0,0],"split_type":[0,0,0,0,0,0,0,0,0,0,0,0,0,0,0,0,0,0,0,0,0,0,0,0,0],"sum_hessian":[3.96E2,2.29E2,1.67E2,1.4E2,8.9E1,7.7E1,9E1,1.17E2,2.3E1,4.8E1,4.1E1,3.3E1,4.4E1,6E1,3E1,2E1,9.7E1,2.3E1,2.5E1,2.1E1,2E1,2.4E1,2E1,2E1,4E1],"tree_param":{"num_deleted":"0","num_feature":"8","num_nodes":"25","size_leaf_vector":"1"}},{"base_weights":[4.9366755E-4,-9.528485E-2,1.0006295E-1,-1.3640124E-1,-2.6765706E-2,4.9051307E-2,1.5587735E-1,-1.7141129E-1,-7.625672E-2,-2.2874535E-3,1.1388651E-2,1.9201934E-2,3.0158174E-3,1.2685451E-1,5.15153E-3,-5.9016184E-3,-4.3677418E-3,-2.8304881E-3,-1.0553875E-3,-4.8142852E-4,1.076251E-3,-1.1561001E-4,1.572464E-3,3.0146088E-3,4.175603E-3],"categories":[],"categories_nodes":[],"categories_segments":[],"categories_sizes":[],"default_left":[0,0,0,0,0,0,0,0,0,0,0,0,0,0,0,0,0,0,0,0,0,0,0,0,0],"id":30,"left_children":[1,3,5,7,9,11,13,15,17,-1,19,21,-1,23,-1,-1,-1,-1,-1,-1,-1,-1,-1,-1,-1],"loss_changes":[3.9290767E0,5.879736E-1,5.6748533E-1,2.6277065E-1,1.6784886E-1,1.8425697E-1,5.351448E-2,1.7768383E-2,4.365197E-2,0E0,3.754411E-2,6.1999507E-2,0E0,5.33545E-3,0E0,0E0,0E0,0E0,0E0,0E0,0E0,0E0,0E0,0E0,0E0],"parents":[2147483647,0,0,1,1,2,2,3,3,4,4,5,5,6,6,7,7,8,8,10,10,11,11,13,13],"right_children":[2,4,6,8,10,12,14,16,18,-1,20,22,-1,24,-1,-1,-1,-1,-1,-1,-1,-1,-1,-1,-1],"split_conditions":[3.1176618E-1,6.2629175E-1,4.261408E-1,2.363488E-1,5.3354865E-1,7.584748E-1,7.004771E-1,1.4288679E-1,7.147589E-1,-2.2874535E-3,5.700183E-1,3.6249793E-1,3.0158174E-3,5.041242E-1,5.15153E-3,-5.9016184E-3,-4.3677418E-3,-2.8304881E-3,-1.0553875E-3,-4.8142852E-4,1.076251E-3,-1.1561001E-4,1.572464E-3,3.0146088E-3,4.175603E-3],"split_indices":[4,6,4,4,1,7,1,4,2,0,1,4,0,5,0,0,0,0,0,0,0,0,0,0,0],"split_type":[0,0,0,0,0,0,0,0,0,0,0,0,0,0,0,0,0,0,0,0,0,0,0,0,0],"sum_hessian":[4.1E2,2.09E2,2.01E2,1.3E2,7.9E1,1.06E2,9.5E1,8.1E1,4.9E1,3.2E1,4.7E1,7.1E1,3.5E1,4.9E1,4.6E1,2E1,6.1E1,2.9E1,2E1,2.3E1,2.4E1,4.4E1,2.7E1,2.9E1,2E1],"tree_param":{"num_deleted":"0","num_feature":"8","num_nodes":"25","size_leaf_vector":"1"}},{"base_weights":[2.8411178E-3,-1.0212244E-1,8.328525E-2,-1.3223603E-1,-2.8928313E-2,2.7228367E-2,1.4479952E-1,-1.5711795E-1,-1.4003793E-3,-1.6574798E-3,5.1400583E-4,3.9568082E-3,2.8116207E-3,2.7854613E-3,1.6531081E-1,-5.1712636E-3,-3.8051496E-3,-6.27568E-4,1.2261336E-3,3.998755E-3,5.431924E-3],"categories":[],"categories_nodes":[],"categories_segments":[],"categories_sizes":[],"default_left":[0,0,0,0,0,0,0,0,0,0,0,0,0,0,0,0,0,0,0,0,0],"id":31,"left_children":[1,3,5,7,9,11,13,15,-1,-1,-1,17,-1,-1,19,-1,-1,-1,-1,-1,-1],"loss_changes":[3.3859863E0,3.7969494E-1,7.788211E-1,2.4426007E-1,7.498517E-2,2.0315021E-1,8.46498E-2,2.9973984E-2,0E0,0E0,0E0,9.705427E-2,0E0,0E0,1.9497037E-2,0E0,0E0,0E0,0E0,0E0,0E0],"parents":[2147483647,0,0,1,1,2,2,3,3,4,4,5,5,6,6,7,7,11,11,14,14],"right_children":[2,4,6,8,10,12,14,16,-1,-1,-1,18,-1,-1,20,-1,-1,-1,-1,-1,-1],"split_conditions":[7.287931E-1,2.6318428E-1,4.084579E-1,6.2629175E-1,3.3834648E-1,6.411549E-1,6.55482E-1,1.7712331E-1,-1.4003793E-3,-1.6574798E-3,5.1400583E-4,3.3838075E-1,2.8116207E-3,2.7854613E-3,5.4579574E-1,-5.1712636E-3,-3.8051496E-3,-6.27568E-4,1.2261336E-3,3.998755E-3,5.431924E-3],"split_indices":[2,4,4,6,5,1,1,4,0,0,0,4,0,0,4,0,0,0,0,0,0],"split_type":[0,0,0,0,0,0,0,0,0,0,0,0,0,0,0,0,0,0,0,0,0],"sum_hessian":[3.99E2,1.73E2,2.26E2,1.22E2,5.1E1,1.19E2,1.07E2,9.3E1,2.9E1,3.1E1,2E1,9.1E1,2.8E1,3.5E1,7.2E1,3.8E1,5.5E1,5.5E1,3.6E1,4.3E1,2.9E1],"tree_param":{"num_deleted":"0","num_feature":"8","num_nodes":"21","size_leaf_vector":"1"}},{"base_weights":[1.5081512E-3,-1.0430563E-1,8.3495855E-2,-1.3325237E-1,-3.2974668E-2,3.55396E-2,1.4707853E-1,-1.5130723E-1,-1.5034855E-3,-1.8866942E-3,-6.596463E-5,1.0232097E-2,2.834349E-3,3.2385637E-3,4.757513E-3,-5.154956E-3,-3.663379E-3,-4.1862862E-4,1.1836702E-3],"categories":[],"categories_nodes":[],"categories_segments":[],"categories_sizes":[],"default_left":[0,0,0,0,0,0,0,0,0,0,0,0,0,0,0,0,0,0,0],"id":32,"left_children":[1,3,5,7,9,11,13,15,-1,-1,-1,17,-1,-1,-1,-1,-1,-1,-1],"loss_changes":[3.5569594E0,3.6520505E-1,6.9913507E-1,1.7468596E-1,5.5365764E-2,2.1905054E-1,5.0665855E-2,4.535365E-2,0E0,0E0,0E0,7.845424E-2,0E0,0E0,0E0,0E0,0E0,0E0,0E0],"parents":[2147483647,0,0,1,1,2,2,3,3,4,4,5,5,6,6,7,7,11,11],"right_children":[2,4,6,8,10,12,14,16,-1,-1,-1,18,-1,-1,-1,-1,-1,-1,-1],"split_conditions":[7.287931E-1,2.6318428E-1,4.246244E-1,6.5816003E-1,7.975603E-1,6.407523E-1,4.9175844E-1,1.6859403E-1,-1.5034855E-3,-1.8866942E-3,-6.596463E-5,3.3838075E-1,2.834349E-3,3.2385637E-3,4.757513E-3,-5.154956E-3,-3.663379E-3,-4.1862862E-4,1.1836702E-3],"split_indices":[2,4,4,7,0,1,4,4,0,0,0,4,0,0,0,0,0,0,0],"split_type":[0,0,0,0,0,0,0,0,0,0,0,0,0,0,0,0,0,0,0],"sum_hessian":[4.08E2,1.78E2,2.3E2,1.26E2,5.2E1,1.32E2,9.8E1,1.02E2,2.4E1,2.4E1,2.8E1,9.6E1,3.6E1,4.3E1,5.5E1,3.7E1,6.5E1,5.4E1,4.2E1],"tree_param":{"num_deleted":"0","num_feature":"8","num_nodes":"19","size_leaf_vector":"1"}},{"base_weights":[3.7961043E-3,-6.641419E-2,1.1832477E-1,-1.2767486E-1,-1.9020107E-2,9.277827E-2,4.7344305E-3,-1.5683606E-1,-1.5029132E-3,-6.5840885E-2,5.09072E-3,1.47828E-3,1.1266423E-1,-4.900097E-3,-3.8986863E-3,-2.7753848E-3,-8.0705946E-4,-4.835966E-4,9.302227E-4,2.6721924E-3,3.5269456E-3],"categories":[],"categories_nodes":[],"categories_segments":[],"categories_sizes":[],"default_left":[0,0,0,0,0,0,0,0,0,0,0,0,0,0,0,0,0,0,0,0,0],"id":33,"left_children":[1,3,5,7,9,11,-1,13,-1,15,17,-1,19,-1,-1,-1,-1,-1,-1,-1,-1],"loss_changes":[3.2162542E0,7.176132E-1,1.7951941E-1,2.251637E-1,1.5950835E-1,7.628542E-2,0E0,2.515316E-4,0E0,5.590494E-2,5.9360743E-2,0E0,3.4402013E-3,0E0,0E0,0E0,0E0,0E0,0E0,0E0,0E0],"parents":[2147483647,0,0,1,1,2,2,3,3,4,4,5,5,7,7,9,9,10,10,12,12],"right_children":[2,4,6,8,10,12,-1,14,-1,16,18,-1,20,-1,-1,-1,-1,-1,-1,-1,-1],"split_conditions":[3.5973415E-1,2.430826E-1,7.049852E-1,6.2629175E-1,7.0411885E-1,4.084579E-1,4.7344305E-3,1.6859403E-1,-1.5029132E-3,7.8745455E-1,3.1176618E-1,1.47828E-3,4.6032816E-1,-4.900097E-3,-3.8986863E-3,-2.7753848E-3,-8.0705946E-4,-4.835966E-4,9.302227E-4,2.6721924E-3,3.5269456E-3],"split_indices":[4,4,1,6,2,4,0,4,0,0,4,0,4,0,0,0,0,0,0,0,0],"split_type":[0,0,0,0,0,0,0,0,0,0,0,0,0,0,0,0,0,0,0,0,0],"sum_hessian":[3.98E2,2.47E2,1.51E2,1.07E2,1.4E2,1.02E2,4.9E1,7.6E1,3.1E1,4.7E1,9.3E1,3.5E1,6.7E1,3.4E1,4.2E1,2.4E1,2.3E1,5.2E1,4.1E1,3.2E1,3.5E1],"tree_param":{"num_deleted":"0","num_feature":"8","num_nodes":"21","size_leaf_vector":"1"}},{"base_weights":[-1.4580521E-3,-8.907156E-2,8.973896E-2,-1.38531E-1,-4.1119028E-2,9.9247E-3,1.2659387E-1,-5.0878352E-3,-1.2418248E-1,-3.5169472E-3,-1.7315261E-2,-6.6735066E-4,1.1590075E-3,1.0272443E-1,4.659155E-3,-2.2495193E-3,-3.8755764E-3,-1.561181E-3,-4.820539E-5,2.2435037E-3,3.7553117E-3],"categories":[],"categories_nodes":[],"categories_segments":[],"categories_sizes":[],"default_left":[0,0,0,0,0,0,0,0,0,0,0,0,0,0,0,0,0,0,0,0,0],"id":34,"left_children":[1,3,5,7,9,11,13,-1,15,-1,17,-1,-1,19,-1,-1,-1,-1,-1,-1,-1],"loss_changes":[3.196039E0,4.7813153E-1,5.752871E-1,3.8680196E-2,2.0806266E-1,6.750592E-2,1.0869026E-1,0E0,3.646183E-2,0E0,4.945966E-2,0E0,0E0,5.0192773E-2,0E0,0E0,0E0,0E0,0E0,0E0,0E0],"parents":[2147483647,0,0,1,1,2,2,3,3,4,4,5,5,6,6,8,8,10,10,13,13],"right_children":[2,4,6,8,10,12,14,-1,16,-1,18,-1,-1,20,-1,-1,-1,-1,-1,-1,-1],"split_conditions":[3.1176618E-1,6.6826797E-1,7.754818E-1,5.541445E-1,4.907832E-1,7.568712E-1,7.049852E-1,-5.0878352E-3,5.9458655E-1,-3.5169472E-3,5.3354865E-1,-6.6735066E-4,1.1590075E-3,4.6032816E-1,4.659155E-3,-2.2495193E-3,-3.8755764E-3,-1.561181E-3,-4.820539E-5,2.2435037E-3,3.7553117E-3],"split_indices":[4,2,2,2,6,3,1,0,3,0,1,0,0,4,0,0,0,0,0,0,0],"split_type":[0,0,0,0,0,0,0,0,0,0,0,0,0,0,0,0,0,0,0,0,0],"sum_hessian":[3.98E2,2.03E2,1.95E2,9.9E1,1.04E2,6.2E1,1.33E2,2.2E1,7.7E1,2.2E1,8.2E1,3E1,3.2E1,8.5E1,4.8E1,2E1,5.7E1,2.3E1,5.9E1,5.1E1,3.4E1],"tree_param":{"num_deleted":"0","num_feature":"8","num_nodes":"21","size_leaf_vector":"1"}},{"base_weights":[9.067318E-4,-6.270917E-2,1.09346546E-1,-1.417946E-1,-3.4760237E-2,7.658735E-2,1.482968E-1,-5.0808247E-3,-1.20851204E-1,-7.951206E-2,-1.8974574E-3,1.2544675E-3,9.893038E-2,3.2217177E-3,4.684099E-3,-2.5810904E-3,-3.919909E-3,-3.089658E-3,2.4435567E-5,-1.2149033E-3,6.8204774E-4,2.2944168E-3,3.2912036E-3],"categories":[],"categories_nodes":[],"categories_segments":[],"categories_sizes":[],"default_left":[0,0,0,0,0,0,0,0,0,0,0,0,0,0,0,0,0,0,0,0,0,0,0],"id":35,"left_children":[1,3,5,7,9,11,13,-1,15,17,19,-1,21,-1,-1,-1,-1,-1,-1,-1,-1,-1,-1],"loss_changes":[2.7800527E0,5.565009E-1,1.7876327E-1,3.2215357E-2,2.7780563E-1,5.477211E-2,2.247405E-2,0E0,1.210767E-2,1.962589E-1,1.2018529E-1,0E0,5.5301487E-3,0E0,0E0,0E0,0E0,0E0,0E0,0E0,0E0,0E0,0E0],"parents":[2147483647,0,0,1,1,2,2,3,3,4,4,5,5,6,6,8,8,9,9,10,10,12,12],"right_children":[2,4,6,8,10,12,14,-1,16,18,20,-1,22,-1,-1,-1,-1,-1,-1,-1,-1,-1,-1],"split_conditions":[3.5973415E-1,4.513516E-1,4.6032816E-1,5.541445E-1,2.6318428E-1,8.0623704E-1,8.0596995E-1,-5.0808247E-3,6.752571E-1,3.7948862E-1,3.3834648E-1,1.2544675E-3,8.079767E-1,3.2217177E-3,4.684099E-3,-2.5810904E-3,-3.919909E-3,-3.089658E-3,2.4435567E-5,-1.2149033E-3,6.8204774E-4,2.2944168E-3,3.2912036E-3],"split_indices":[4,1,4,2,4,2,7,0,3,5,5,0,7,0,0,0,0,0,0,0,0,0,0],"split_type":[0,0,0,0,0,0,0,0,0,0,0,0,0,0,0,0,0,0,0,0,0,0,0],"sum_hessian":[4.01E2,2.53E2,1.48E2,6.5E1,1.88E2,8.2E1,6.6E1,2E1,4.5E1,7.9E1,1.09E2,3.5E1,4.7E1,2.6E1,4E1,2E1,2.5E1,5.7E1,2.2E1,4.2E1,6.7E1,2.7E1,2E1],"tree_param":{"num_deleted":"0","num_feature":"8","num_nodes":"23","size_leaf_vector":"1"}},{"base_weights":[-3.3979517E-4,-9.3400955E-2,7.275262E-2,-1.1762243E-1,-3.0119497E-2,2.2299003E-2,1.2800525E-1,-1.3242713E-1,-9.285246E-4,-1.4516367E-3,-1.8942132E-5,-1.2720601E-2,7.198787E-2,1.02452554E-1,4.382665E-3,-4.790286E-3,-3.1485439E-3,3.1815533E-4,-1.0229781E-3,1.5084277E-3,2.5362188E-3,3.2395648E-3,2.225876E-3],"categories":[],"categories_nodes":[],"categories_segments":[],"categories_sizes":[],"default_left":[0,0,0,0,0,0,0,0,0,0,0,0,0,0,0,0,0,0,0,0,0,0,0],"id":36,"left_children":[1,3,5,7,9,11,13,15,-1,-1,-1,17,19,21,-1,-1,-1,-1,-1,-1,-1,-1,-1],"loss_changes":[2.829652E0,2.769543E-1,6.466783E-1,1.6086936E-1,3.299262E-2,2.1494608E-1,6.35798E-2,6.766236E-2,0E0,0E0,0E0,4.2030737E-2,1.2226462E-2,9.111047E-3,0E0,0E0,0E0,0E0,0E0,0E0,0E0,0E0,0E0],"parents":[2147483647,0,0,1,1,2,2,3,3,4,4,5,5,6,6,7,7,11,11,12,12,13,13],"right_children":[2,4,6,8,10,12,14,16,-1,-1,-1,18,20,22,-1,-1,-1,-1,-1,-1,-1,-1,-1],"split_conditions":[7.287931E-1,2.6318428E-1,6.411549E-1,6.9056165E-1,8.1559306E-1,3.6249793E-1,7.049852E-1,1.6859403E-1,-9.285246E-4,-1.4516367E-3,-1.8942132E-5,7.619991E-1,4.246244E-1,6.7909735E-1,4.382665E-3,-4.790286E-3,-3.1485439E-3,3.1815533E-4,-1.0229781E-3,1.5084277E-3,2.5362188E-3,3.2395648E-3,2.225876E-3],"split_indices":[2,4,1,7,0,4,1,4,0,0,0,2,4,1,0,0,0,0,0,0,0,0,0],"split_type":[0,0,0,0,0,0,0,0,0,0,0,0,0,0,0,0,0,0,0,0,0,0,0],"sum_hessian":[4.14E2,1.82E2,2.32E2,1.31E2,5.1E1,1.22E2,1.1E2,1.11E2,2E1,2.9E1,2.2E1,7.2E1,5E1,6E1,5E1,3.6E1,7.5E1,3.6E1,3.6E1,2.7E1,2.3E1,3.6E1,2.4E1],"tree_param":{"num_deleted":"0","num_feature":"8","num_nodes":"23","size_leaf_vector":"1"}},{"base_weights":[-2.7909074E-3,-7.274655E-2,9.524749E-2,-1.318117E-1,-3.689296E-2,4.652319E-2,1.2584119E-1,-4.89814E-3,-1.1496848E-1,-2.9503505E-3,-2.1378042E-2,2.7937067E-4,6.8582594E-2,1.0810944E-1,4.4832667E-3,-3.990518E-3,-2.562377E-3,-1.1633235E-3,5.2644877E-4,1.1543821E-3,2.6059803E-3,2.1250239E-3,3.358018E-3],"categories":[],"categories_nodes":[],"categories_segments":[],"categories_sizes":[],"default_left":[0,0,0,0,0,0,0,0,0,0,0,0,0,0,0,0,0,0,0,0,0,0,0],"id":37,"left_children":[1,3,5,7,9,11,13,-1,15,-1,17,-1,19,21,-1,-1,-1,-1,-1,-1,-1,-1,-1],"loss_changes":[2.750265E0,4.906782E-1,2.4308491E-1,4.309237E-2,1.5321389E-1,5.2568525E-2,4.3872356E-2,0E0,2.9514551E-2,0E0,9.809816E-2,0E0,2.3461446E-2,1.6983867E-2,0E0,0E0,0E0,0E0,0E0,0E0,0E0,0E0,0E0],"parents":[2147483647,0,0,1,1,2,2,3,3,4,4,5,5,6,6,8,8,10,10,12,12,13,13],"right_children":[2,4,6,8,10,12,14,-1,16,-1,18,-1,20,22,-1,-1,-1,-1,-1,-1,-1,-1,-1],"split_conditions":[3.3838075E-1,6.544862E-1,4.0955442E-1,1.5005575E-1,2.17735E-1,6.999342E-1,5.4579574E-1,-4.89814E-3,4.3762073E-1,-2.9503505E-3,6.9984245E-1,2.7937067E-4,6.297526E-1,7.327746E-1,4.4832667E-3,-3.990518E-3,-2.562377E-3,-1.1633235E-3,5.2644877E-4,1.1543821E-3,2.6059803E-3,2.1250239E-3,3.358018E-3],"split_indices":[4,2,4,4,4,7,4,0,7,0,6,0,1,6,0,0,0,0,0,0,0,0,0],"split_type":[0,0,0,0,0,0,0,0,0,0,0,0,0,0,0,0,0,0,0,0,0,0,0],"sum_hessian":[3.99E2,2.33E2,1.66E2,8.7E1,1.46E2,6.5E1,1.01E2,2.2E1,6.5E1,2.6E1,1.2E2,2.5E1,4E1,6.9E1,3.2E1,2.8E1,3.7E1,8E1,4E1,2E1,2E1,2E1,4.9E1],"tree_param":{"num_deleted":"0","num_feature":"8","num_nodes":"23","size_leaf_vector":"1"}},{"base_weights":[-1.4106551E-3,-6.061114E-2,1.0070972E-1,-1.12592176E-1,-1.28016705E-2,7.2172396E-2,4.1611423E-3,-1.254804E-1,-1.8080956E-3,-3.7658084E-2,2.0846639E-2,1.272062E-3,8.929553E-2,-3.911518E-3,-2.329976E-3,-1.5384929E-3,2.3652618E-4,-1.07509855E-4,1.3850451E-3,2.1652507E-3,2.9917327E-3],"categories":[],"categories_nodes":[],"categories_segments":[],"categories_sizes":[],"default_left":[0,0,0,0,0,0,0,0,0,0,0,0,0,0,0,0,0,0,0,0,0],"id":38,"left_children":[1,3,5,7,9,11,-1,13,-1,15,17,-1,19,-1,-1,-1,-1,-1,-1,-1,-1],"loss_changes":[2.4545624E0,6.3725144E-1,1.911118E-1,6.834507E-2,1.13695845E-1,3.9675564E-2,0E0,4.4772744E-2,0E0,6.2012196E-2,4.093653E-2,0E0,3.7664175E-3,0E0,0E0,0E0,0E0,0E0,0E0,0E0,0E0],"parents":[2147483647,0,0,1,1,2,2,3,3,4,4,5,5,7,7,9,9,10,10,12,12],"right_children":[2,4,6,8,10,12,-1,14,-1,16,18,-1,20,-1,-1,-1,-1,-1,-1,-1,-1],"split_conditions":[3.5973415E-1,6.8712145E-1,4.9175844E-1,6.2629175E-1,3.8384137E-1,8.0623704E-1,4.1611423E-3,2.384012E-1,-1.8080956E-3,5.980925E-1,8.793116E-1,1.272062E-3,6.9291186E-1,-3.911518E-3,-2.329976E-3,-1.5384929E-3,2.3652618E-4,-1.07509855E-4,1.3850451E-3,2.1652507E-3,2.9917327E-3],"split_indices":[4,2,4,6,5,2,0,4,0,1,0,0,1,0,0,0,0,0,0,0,0],"split_type":[0,0,0,0,0,0,0,0,0,0,0,0,0,0,0,0,0,0,0,0,0],"sum_hessian":[4.04E2,2.56E2,1.48E2,1.22E2,1.34E2,9.4E1,5.4E1,9.5E1,2.7E1,7.7E1,5.7E1,3.8E1,5.6E1,7E1,2.5E1,5.6E1,2.1E1,3.1E1,2.6E1,3.6E1,2E1],"tree_param":{"num_deleted":"0","num_feature":"8","num_nodes":"21","size_leaf_vector":"1"}},{"base_weights":[1.0897759E-3,-9.3820676E-2,6.0969427E-2,-1.0809724E-1,-8.691001E-8,1.2573355E-2,1.0926571E-1,-1.2732033E-1,-6.5540165E-2,-1.1085725E-2,4.9230054E-2,9.334453E-2,4.354215E-3,-4.737856E-3,-3.1974525E-3,-2.5530453E-3,-9.047974E-4,-8.161102E-4,3.3215492E-4,1.8869715E-3,8.4435847E-4,1.5127048E-3,3.0116471E-3],"categories":[],"categories_nodes":[],"categories_segments":[],"categories_sizes":[],"default_left":[0,0,0,0,0,0,0,0,0,0,0,0,0,0,0,0,0,0,0,0,0,0,0],"id":39,"left_children":[1,3,5,7,-1,9,11,13,15,17,19,21,-1,-1,-1,-1,-1,-1,-1,-1,-1,-1,-1],"loss_changes":[2.3358343E0,2.129631E-1,5.876384E-1,1.0455024E-1,0E0,1.10688254E-1,7.7364445E-2,3.3174634E-2,3.5111606E-2,3.2468E-2,1.5190497E-2,4.6884894E-2,0E0,0E0,0E0,0E0,0E0,0E0,0E0,0E0,0E0,0E0,0E0],"parents":[2147483647,0,0,1,1,2,2,3,3,5,5,6,6,7,7,8,8,9,9,10,10,11,11],"right_children":[2,4,6,8,-1,10,12,14,16,18,20,22,-1,-1,-1,-1,-1,-1,-1,-1,-1,-1,-1],"split_conditions":[7.166269E-1,6.9984245E-1,8.0623704E-1,2.4556324E-1,-8.691001E-8,3.3838075E-1,5.5337733E-1,1.4288679E-1,7.863328E-1,3.8384137E-1,5.9002984E-1,6.407523E-1,4.354215E-3,-4.737856E-3,-3.1974525E-3,-2.5530453E-3,-9.047974E-4,-8.161102E-4,3.3215492E-4,1.8869715E-3,8.4435847E-4,1.5127048E-3,3.0116471E-3],"split_indices":[2,6,2,4,0,4,4,4,0,5,1,1,0,0,0,0,0,0,0,0,0,0,0],"split_type":[0,0,0,0,0,0,0,0,0,0,0,0,0,0,0,0,0,0,0,0,0,0,0],"sum_hessian":[4.09E2,1.58E2,2.51E2,1.37E2,2.1E1,1.26E2,1.25E2,9.3E1,4.4E1,7.7E1,4.9E1,9.5E1,3E1,2E1,7.3E1,2.4E1,2E1,4.3E1,3.4E1,2.4E1,2.5E1,2.6E1,6.9E1],"tree_param":{"num_deleted":"0","num_feature":"8","num_nodes":"23","size_leaf_vector":"1"}},{"base_weights":[-5.042339E-4,-7.828994E-2,7.689312E-2,-9.707111E-2,-4.0041883E-3,1.0585908E-2,1.0409335E-1,-1.3430548E-1,-6.818092E-2,-3.951198E-4,1.755714E-4,-4.158471E-4,1.0005162E-3,8.2343034E-2,3.893874E-3,-4.4935117E-3,-3.275964E-3,-7.8457466E-4,-2.4046095E-3,1.4499034E-3,2.7265046E-3],"categories":[],"categories_nodes":[],"categories_segments":[],"categories_sizes":[],"default_left":[0,0,0,0,0,0,0,0,0,0,0,0,0,0,0,0,0,0,0,0,0],"id":40,"left_children":[1,3,5,7,9,11,13,15,17,-1,-1,-1,-1,19,-1,-1,-1,-1,-1,-1,-1],"loss_changes":[2.3901014E0,2.7585566E-1,3.5780883E-1,1.6080487E-1,4.3203477E-3,3.8043633E-2,9.457159E-2,1.2188435E-2,6.1485976E-2,0E0,0E0,0E0,0E0,3.5288215E-2,0E0,0E0,0E0,0E0,0E0,0E0,0E0],"parents":[2147483647,0,0,1,1,2,2,3,3,4,4,5,5,6,6,7,7,8,8,13,13],"right_children":[2,4,6,8,10,12,14,16,18,-1,-1,-1,-1,20,-1,-1,-1,-1,-1,-1,-1],"split_conditions":[3.1176618E-1,5.700183E-1,7.754818E-1,4.9462956E-1,3.5361513E-1,7.568712E-1,7.004771E-1,1.6220485E-1,5.599107E-1,-3.951198E-4,1.755714E-4,-4.158471E-4,1.0005162E-3,4.0955442E-1,3.893874E-3,-4.4935117E-3,-3.275964E-3,-7.8457466E-4,-2.4046095E-3,1.4499034E-3,2.7265046E-3],"split_indices":[4,1,2,6,5,3,1,4,7,0,0,0,0,4,0,0,0,0,0,0,0],"split_type":[0,0,0,0,0,0,0,0,0,0,0,0,0,0,0,0,0,0,0,0,0],"sum_hessian":[3.95E2,1.97E2,1.98E2,1.57E2,4E1,5.8E1,1.4E2,6.7E1,9E1,2E1,2E1,2.9E1,2.9E1,8.8E1,5.2E1,2.4E1,4.3E1,2.8E1,6.2E1,3E1,5.8E1],"tree_param":{"num_deleted":"0","num_feature":"8","num_nodes":"21","size_leaf_vector":"1"}},{"base_weights":[2.0602974E-4,-7.9061106E-2,6.320346E-2,-1.0036331E-1,-2.6708419E-2,2.0431047E-2,1.0770295E-1,-1.1734798E-1,-1.3888619E-3,-1.2994555E-3,1.7513942E-4,2.5730522E-3,1.810687E-3,9.067732E-2,4.046685E-3,-3.5683212E-3,-2.15141E-3,-7.302966E-4,3.9999248E-4,1.6185851E-3,2.8336626E-3],"categories":[],"categories_nodes":[],"categories_segments":[],"categories_sizes":[],"default_left":[0,0,0,0,0,0,0,0,0,0,0,0,0,0,0,0,0,0,0,0,0],"id":41,"left_children":[1,3,5,7,9,11,13,15,-1,-1,-1,17,-1,19,-1,-1,-1,-1,-1,-1,-1],"loss_changes":[2.0523837E0,2.002908E-1,4.3366677E-1,1.0573852E-1,3.5091016E-2,9.26457E-2,5.6328297E-2,2.8255105E-2,0E0,0E0,0E0,2.8717661E-2,0E0,2.087301E-2,0E0,0E0,0E0,0E0,0E0,0E0,0E0],"parents":[2147483647,0,0,1,1,2,2,3,3,4,4,5,5,6,6,7,7,11,11,13,13],"right_children":[2,4,6,8,10,12,14,16,-1,-1,-1,18,-1,20,-1,-1,-1,-1,-1,-1,-1],"split_conditions":[7.287931E-1,2.6318428E-1,4.0955442E-1,6.2629175E-1,7.0411885E-1,7.7739865E-1,5.4579574E-1,2.3474304E-1,-1.3888619E-3,-1.2994555E-3,1.7513942E-4,3.402442E-1,1.810687E-3,7.163278E-1,4.046685E-3,-3.5683212E-3,-2.15141E-3,-7.302966E-4,3.9999248E-4,1.6185851E-3,2.8336626E-3],"split_indices":[2,4,4,6,2,7,4,4,0,0,0,5,0,7,0,0,0,0,0,0,0],"split_type":[0,0,0,0,0,0,0,0,0,0,0,0,0,0,0,0,0,0,0,0,0],"sum_hessian":[4.09E2,1.81E2,2.28E2,1.28E2,5.3E1,1.17E2,1.11E2,9.5E1,3.3E1,3.3E1,2E1,8.4E1,3.3E1,7.8E1,3.3E1,7.5E1,2E1,2.4E1,6E1,2E1,5.8E1],"tree_param":{"num_deleted":"0","num_feature":"8","num_nodes":"21","size_leaf_vector":"1"}},{"base_weights":[1.9581482E-4,-6.916722E-2,7.0603535E-2,-1.07219584E-1,-2.6034191E-2,2.9003697E-2,1.08324505E-1,-1.3545859E-1,-8.3703965E-2,-2.0328811E-3,-1.2883615E-2,5.4735704E-3,2.0714104E-3,2.1560835E-3,1.253267E-1,-4.364064E-3,-3.1840652E-3,-2.9889885E-3,-1.966438E-3,-1.4904514E-3,4.0665E-4,-3.556896E-4,7.429009E-4,2.8241416E-3,3.9286776E-3],"categories":[],"categories_nodes":[],"categories_segments":[],"categories_sizes":[],"default_left":[0,0,0,0,0,0,0,0,0,0,0,0,0,0,0,0,0,0,0,0,0,0,0,0,0],"id":42,"left_children":[1,3,5,7,9,11,13,15,17,-1,19,21,-1,-1,23,-1,-1,-1,-1,-1,-1,-1,-1,-1,-1],"loss_changes":[1.9583606E0,3.2875407E-1,3.0912626E-1,5.971563E-2,5.7585783E-2,1.0069362E-1,4.616654E-2,3.071785E-3,1.15177035E-2,0E0,8.434603E-2,2.4690311E-2,0E0,0E0,9.739518E-3,0E0,0E0,0E0,0E0,0E0,0E0,0E0,0E0,0E0,0E0],"parents":[2147483647,0,0,1,1,2,2,3,3,4,4,5,5,6,6,7,7,8,8,10,10,11,11,14,14],"right_children":[2,4,6,8,10,12,14,16,18,-1,20,22,-1,-1,24,-1,-1,-1,-1,-1,-1,-1,-1,-1,-1],"split_conditions":[3.1176618E-1,6.7750955E-1,4.0955442E-1,1.8731922E-1,2.8475267E-1,7.594322E-1,4.6032816E-1,1.5005575E-1,4.5346242E-1,-2.0328811E-3,6.3111144E-1,7.568712E-1,2.0714104E-3,2.1560835E-3,8.041481E-1,-4.364064E-3,-3.1840652E-3,-2.9889885E-3,-1.966438E-3,-1.4904514E-3,4.0665E-4,-3.556896E-4,7.429009E-4,2.8241416E-3,3.9286776E-3],"split_indices":[4,2,4,4,5,6,4,4,6,0,6,3,0,0,7,0,0,0,0,0,0,0,0,0,0],"split_type":[0,0,0,0,0,0,0,0,0,0,0,0,0,0,0,0,0,0,0,0,0,0,0,0,0],"sum_hessian":[3.99E2,2.01E2,1.98E2,1.06E2,9.5E1,9.5E1,1.03E2,4.6E1,6E1,2E1,7.5E1,6.3E1,3.2E1,3.8E1,6.5E1,2.1E1,2.5E1,2E1,4E1,3E1,4.5E1,3.4E1,2.9E1,2.7E1,3.8E1],"tree_param":{"num_deleted":"0","num_feature":"8","num_nodes":"25","size_leaf_vector":"1"}},{"base_weights":[3.7485195E-4,-8.15661E-2,6.034706E-2,-1.21077426E-1,-5.876188E-2,1.4333092E-2,9.804588E-2,-4.3353946E-3,-1.0154577E-1,-7.203357E-2,4.3443564E-5,-2.7836799E-3,2.3748223E-3,7.99977E-2,3.714936E-3,-2.2419514E-3,-3.3042259E-3,-2.6859532E-3,-7.762919E-4,3.978702E-4,-6.2197965E-4,1.6031298E-3,2.5248267E-3],"categories":[],"categories_nodes":[],"categories_segments":[],"categories_sizes":[],"default_left":[0,0,0,0,0,0,0,0,0,0,0,0,0,0,0,0,0,0,0,0,0,0,0],"id":43,"left_children":[1,3,5,7,9,11,13,-1,15,17,-1,19,-1,21,-1,-1,-1,-1,-1,-1,-1,-1,-1],"loss_changes":[2.0000794E0,1.478616E-1,4.062426E-1,2.4646163E-2,8.895579E-2,1.2886092E-1,6.912649E-2,0E0,5.3007603E-3,9.272379E-2,0E0,2.8870469E-2,0E0,1.4616191E-2,0E0,0E0,0E0,0E0,0E0,0E0,0E0,0E0,0E0],"parents":[2147483647,0,0,1,1,2,2,3,3,4,4,5,5,6,6,8,8,9,9,11,11,13,13],"right_children":[2,4,6,8,10,12,14,-1,16,18,-1,20,-1,22,-1,-1,-1,-1,-1,-1,-1,-1,-1],"split_conditions":[7.2617143E-1,4.4944465E-1,3.8510352E-1,3.9560527E-1,3.0912077E-1,6.407523E-1,7.104392E-1,-4.3353946E-3,6.752571E-1,6.2629175E-1,4.3443564E-5,7.619991E-1,2.3748223E-3,7.159326E-1,3.714936E-3,-2.2419514E-3,-3.3042259E-3,-2.6859532E-3,-7.762919E-4,3.978702E-4,-6.2197965E-4,1.6031298E-3,2.5248267E-3],"split_indices":[2,1,4,1,4,1,1,0,3,6,0,2,0,7,0,0,0,0,0,0,0,0,0],"split_type":[0,0,0,0,0,0,0,0,0,0,0,0,0,0,0,0,0,0,0,0,0,0,0],"sum_hessian":[4.05E2,1.71E2,2.34E2,6.1E1,1.1E2,1.06E2,1.28E2,2E1,4.1E1,9E1,2E1,8.6E1,2E1,8.6E1,4.2E1,2E1,2.1E1,5.8E1,3.2E1,4.6E1,4E1,2.8E1,5.8E1],"tree_param":{"num_deleted":"0","num_feature":"8","num_nodes":"23","size_leaf_vector":"1"}},{"base_weights":[1.1606136E-3,-6.14787E-2,6.83377E-2,-1.1112764E-1,-3.24272E-2,1.4426566E-2,9.314188E-2,-4.053182E-3,-9.0977915E-2,-7.4852526E-2,3.966857E-3,-3.894795E-4,1.2657343E-3,7.373728E-2,3.5262697E-3,-2.977332E-3,-2.1464692E-3,-2.405141E-3,-1.4104091E-3,-3.9031982E-4,7.161766E-4,1.3304165E-3,2.6411023E-3],"categories":[],"categories_nodes":[],"categories_segments":[],"categories_sizes":[],"default_left":[0,0,0,0,0,0,0,0,0,0,0,0,0,0,0,0,0,0,0,0,0,0,0],"id":44,"left_children":[1,3,5,7,9,11,13,-1,15,17,19,-1,-1,21,-1,-1,-1,-1,-1,-1,-1,-1,-1],"loss_changes":[1.683164E0,2.949683E-1,2.567401E-1,3.7708938E-2,2.0410886E-1,5.4383576E-2,7.3786855E-2,0E0,2.8351545E-3,1.1910379E-2,2.805488E-2,0E0,0E0,4.1051775E-2,0E0,0E0,0E0,0E0,0E0,0E0,0E0,0E0,0E0],"parents":[2147483647,0,0,1,1,2,2,3,3,4,4,5,5,6,6,8,8,9,9,10,10,13,13],"right_children":[2,4,6,8,10,12,14,-1,16,18,20,-1,-1,22,-1,-1,-1,-1,-1,-1,-1,-1,-1],"split_conditions":[3.1176618E-1,4.9462956E-1,6.903823E-1,1.632639E-1,6.8712145E-1,7.6459163E-1,7.049852E-1,-4.053182E-3,2.7833092E-1,2.4944255E-1,5.700183E-1,-3.894795E-4,1.2657343E-3,4.1496146E-1,3.5262697E-3,-2.977332E-3,-2.1464692E-3,-2.405141E-3,-1.4104091E-3,-3.9031982E-4,7.161766E-4,1.3304165E-3,2.6411023E-3],"split_indices":[4,6,6,4,2,2,1,0,5,4,1,0,0,4,0,0,0,0,0,0,0,0,0],"split_type":[0,0,0,0,0,0,0,0,0,0,0,0,0,0,0,0,0,0,0,0,0,0,0],"sum_hessian":[3.98E2,2.06E2,1.92E2,7.5E1,1.31E2,6.1E1,1.31E2,2.6E1,4.9E1,6E1,7.1E1,3.2E1,2.9E1,8.4E1,4.7E1,2.1E1,2.8E1,4E1,2E1,3.9E1,3.2E1,3.8E1,4.6E1],"tree_param":{"num_deleted":"0","num_feature":"8","num_nodes":"23","size_leaf_vector":"1"}},{"base_weights":[7.236983E-4,-4.9011607E-2,8.7083496E-2,-8.4940895E-2,-5.9682894E-3,4.3404344E-2,1.0341472E-1,-1.1756054E-1,-6.112306E-2,-3.180397E-2,3.1061627E-2,5.883611E-4,1.8215134E-3,9.2775226E-2,3.9402493E-3,-3.6711567E-3,-2.579392E-3,-2.4193793E-3,-3.942368E-4,-1.7376227E-3,-4.1480668E-4,3.9236335E-4,1.4435212E-3,2.0952264E-3,2.9842535E-3],"categories":[],"categories_nodes":[],"categories_segments":[],"categories_sizes":[],"default_left":[0,0,0,0,0,0,0,0,0,0,0,0,0,0,0,0,0,0,0,0,0,0,0,0,0],"id":45,"left_children":[1,3,5,7,9,11,13,15,17,19,21,-1,-1,23,-1,-1,-1,-1,-1,-1,-1,-1,-1,-1,-1],"loss_changes":[1.739501E0,3.9694762E-1,1.0108483E-1,1.01584435E-1,1.1387767E-1,1.8875815E-2,2.8979778E-2,7.6233745E-3,9.659544E-2,3.493926E-2,1.631461E-2,0E0,0E0,1.3147056E-2,0E0,0E0,0E0,0E0,0E0,0E0,0E0,0E0,0E0,0E0,0E0],"parents":[2147483647,0,0,1,1,2,2,3,3,4,4,5,5,6,6,7,7,8,8,9,9,10,10,13,13],"right_children":[2,4,6,8,10,12,14,16,18,20,22,-1,-1,24,-1,-1,-1,-1,-1,-1,-1,-1,-1,-1,-1],"split_conditions":[3.6249793E-1,7.013981E-1,4.0955442E-1,2.0156103E-1,3.9519626E-1,8.0623704E-1,8.8424015E-1,4.9462956E-1,6.2629175E-1,7.2617143E-1,8.956994E-1,5.883611E-4,1.8215134E-3,4.776931E-1,3.9402493E-3,-3.6711567E-3,-2.579392E-3,-2.4193793E-3,-3.942368E-4,-1.7376227E-3,-4.1480668E-4,3.9236335E-4,1.4435212E-3,2.0952264E-3,2.9842535E-3],"split_indices":[4,2,4,4,5,2,7,6,6,2,0,0,0,5,0,0,0,0,0,0,0,0,0,0,0],"split_type":[0,0,0,0,0,0,0,0,0,0,0,0,0,0,0,0,0,0,0,0,0,0,0,0,0],"sum_hessian":[4.03E2,2.56E2,1.47E2,1.39E2,1.17E2,4.1E1,1.06E2,5.7E1,8.2E1,6.9E1,4.8E1,2.1E1,2E1,8.5E1,2.1E1,3.5E1,2.2E1,5.3E1,2.9E1,2.4E1,4.5E1,2.7E1,2.1E1,3.9E1,4.6E1],"tree_param":{"num_deleted":"0","num_feature":"8","num_nodes":"25","size_leaf_vector":"1"}},{"base_weights":[6.0871822E-5,-7.712482E-2,5.214528E-2,-8.999568E-2,7.80043E-5,1.3512883E-2,1.01383775E-1,-4.012677E-3,-7.972081E-2,-1.0788362E-3,2.4140155E-2,8.17795E-2,3.5958244E-3,-1.2165355E-3,-2.4273645E-3,-8.46182E-5,1.7223486E-3,1.8288557E-3,2.6693873E-3],"categories":[],"categories_nodes":[],"categories_segments":[],"categories_sizes":[],"default_left":[0,0,0,0,0,0,0,0,0,0,0,0,0,0,0,0,0,0,0],"id":46,"left_children":[1,3,5,7,-1,9,11,-1,13,-1,15,17,-1,-1,-1,-1,-1,-1,-1],"loss_changes":[1.6563121E0,1.7096639E-1,4.665715E-1,6.6318035E-2,0E0,7.7635184E-2,4.5968056E-2,0E0,2.6068807E-2,0E0,1.17323115E-1,8.18035E-3,0E0,0E0,0E0,0E0,0E0,0E0,0E0],"parents":[2147483647,0,0,1,1,2,2,3,3,5,5,6,6,8,8,10,10,11,11],"right_children":[2,4,6,8,-1,10,12,-1,14,-1,16,18,-1,-1,-1,-1,-1,-1,-1],"split_conditions":[7.166269E-1,6.9984245E-1,6.411549E-1,5.5169797E-1,7.80043E-5,5.991883E-1,5.0299835E-1,-4.012677E-3,5.536829E-1,-1.0788362E-3,3.509249E-1,8.137305E-1,3.5958244E-3,-1.2165355E-3,-2.4273645E-3,-8.46182E-5,1.7223486E-3,1.8288557E-3,2.6693873E-3],"split_indices":[2,6,1,2,0,3,4,0,3,0,4,6,0,0,0,0,0,0,0],"split_type":[0,0,0,0,0,0,0,0,0,0,0,0,0,0,0,0,0,0,0],"sum_hessian":[4.1E2,1.65E2,2.45E2,1.42E2,2.3E1,1.38E2,1.07E2,2.1E1,1.21E2,2.3E1,1.15E2,6.4E1,4.3E1,2E1,1.01E2,6.7E1,4.8E1,3.1E1,3.3E1],"tree_param":{"num_deleted":"0","num_feature":"8","num_nodes":"19","size_leaf_vector":"1"}},{"base_weights":[-7.619145E-4,-6.792253E-2,5.3451866E-2,-1.00316286E-1,-3.4414154E-2,1.8164156E-2,9.293554E-2,-3.887126E-3,-2.4407338E-3,-5.8931686E-2,1.9293166E-5,-1.3224197E-3,4.70156E-2,7.1368374E-2,3.287446E-3,-3.0082075E-3,-5.9763395E-4,-5.6986685E-4,1.1225824E-3,3.8411838E-4,2.3213185E-3,2.4035766E-3,1.3810508E-3],"categories":[],"categories_nodes":[],"categories_segments":[],"categories_sizes":[],"default_left":[0,0,0,0,0,0,0,0,0,0,0,0,0,0,0,0,0,0,0,0,0,0,0],"id":47,"left_children":[1,3,5,7,9,11,13,-1,-1,15,-1,17,19,21,-1,-1,-1,-1,-1,-1,-1,-1,-1],"loss_changes":[1.467325E0,1.9193089E-1,3.090152E-1,3.4448087E-2,7.7493906E-2,6.696586E-2,4.6276033E-2,0E0,0E0,9.3873754E-2,0E0,5.7212472E-2,5.5904604E-2,1.4091969E-2,0E0,0E0,0E0,0E0,0E0,0E0,0E0,0E0,0E0],"parents":[2147483647,0,0,1,1,2,2,3,3,4,4,5,5,6,6,9,9,11,11,12,12,13,13],"right_children":[2,4,6,8,10,12,14,-1,-1,16,-1,18,20,22,-1,-1,-1,-1,-1,-1,-1,-1,-1],"split_conditions":[7.287931E-1,6.5841794E-1,6.411549E-1,1.5005575E-1,6.2347025E-1,7.159326E-1,7.049852E-1,-3.887126E-3,-2.4407338E-3,2.4504888E-1,1.9293166E-5,3.6249793E-1,3.8510352E-1,6.7909735E-1,3.287446E-3,-3.0082075E-3,-5.9763395E-4,-5.6986685E-4,1.1225824E-3,3.8411838E-4,2.3213185E-3,2.4035766E-3,1.3810508E-3],"split_indices":[2,2,1,4,6,7,1,0,0,4,0,4,4,1,0,0,0,0,0,0,0,0,0],"split_type":[0,0,0,0,0,0,0,0,0,0,0,0,0,0,0,0,0,0,0,0,0,0,0],"sum_hessian":[4.01E2,1.79E2,2.22E2,9E1,8.9E1,1.18E2,1.04E2,2.1E1,6.9E1,5.2E1,3.7E1,7.1E1,4.7E1,5.7E1,4.7E1,2.2E1,3E1,4.9E1,2.2E1,2.5E1,2.2E1,3.3E1,2.4E1],"tree_param":{"num_deleted":"0","num_feature":"8","num_nodes":"23","size_leaf_vector":"1"}},{"base_weights":[-7.28734E-4,-5.9687473E-2,5.7658352E-2,-1.0356747E-1,-3.371315E-2,2.853614E-2,9.1743775E-2,-3.4169576E-3,-2.1949434E-3,-7.297081E-2,-8.755703E-3,4.4303415E-3,6.0584906E-2,6.7888655E-2,1.16210714E-1,-1.5657693E-3,-2.5487929E-3,-1.0107806E-3,8.048193E-5,4.6614622E-4,-4.7878642E-4,1.1165821E-3,2.114968E-3,1.4312677E-3,2.4463993E-3,2.672595E-3,3.6693783E-3],"categories":[],"categories_nodes":[],"categories_segments":[],"categories_sizes":[],"default_left":[0,0,0,0,0,0,0,0,0,0,0,0,0,0,0,0,0,0,0,0,0,0,0,0,0,0,0],"id":48,"left_children":[1,3,5,7,9,11,13,-1,-1,15,17,19,21,23,25,-1,-1,-1,-1,-1,-1,-1,-1,-1,-1,-1,-1],"loss_changes":[1.4045101E0,2.2787833E-1,2.0087373E-1,2.4991572E-2,1.2575151E-1,8.625844E-2,4.6974897E-2,0E0,0E0,1.0251492E-2,2.5425276E-2,1.7271502E-2,1.17253065E-2,1.1826783E-2,1.2488961E-3,0E0,0E0,0E0,0E0,0E0,0E0,0E0,0E0,0E0,0E0,0E0,0E0],"parents":[2147483647,0,0,1,1,2,2,3,3,4,4,5,5,6,6,9,9,10,10,11,11,12,12,13,13,14,14],"right_children":[2,4,6,8,10,12,14,-1,-1,16,18,20,22,24,26,-1,-1,-1,-1,-1,-1,-1,-1,-1,-1,-1,-1],"split_conditions":[3.1176618E-1,4.9462956E-1,6.55482E-1,2.7833092E-1,6.6826797E-1,3.8510352E-1,5.0299835E-1,-3.4169576E-3,-2.1949434E-3,8.109864E-1,5.3354865E-1,5.876876E-1,7.159326E-1,7.011806E-1,8.8766E-1,-1.5657693E-3,-2.5487929E-3,-1.0107806E-3,8.048193E-5,4.6614622E-4,-4.7878642E-4,1.1165821E-3,2.114968E-3,1.4312677E-3,2.4463993E-3,2.672595E-3,3.6693783E-3],"split_indices":[4,6,1,5,2,4,4,0,0,0,1,1,7,1,2,0,0,0,0,0,0,0,0,0,0,0,0],"split_type":[0,0,0,0,0,0,0,0,0,0,0,0,0,0,0,0,0,0,0,0,0,0,0,0,0,0,0],"sum_hessian":[4.06E2,2.02E2,2.04E2,7.4E1,1.28E2,1.11E2,9.3E1,4.1E1,3.3E1,4.9E1,7.9E1,6.4E1,4.7E1,4.9E1,4.4E1,2.7E1,2.2E1,2.3E1,5.6E1,4.1E1,2.3E1,2.1E1,2.6E1,2.8E1,2.1E1,2.1E1,2.3E1],"tree_param":{"num_deleted":"0","num_feature":"8","num_nodes":"27","size_leaf_vector":"1"}},{"base_weights":[-1.6063757E-3,-4.5338538E-2,7.595603E-2,-7.782712E-2,-1.3377402E-3,5.818349E-2,1.1140182E-1,-9.5730044E-2,-2.9802645E-2,-1.2236765E-2,1.2580345E-3,4.2660788E-2,2.4342635E-3,2.6426075E-3,3.6506418E-3,-3.6387972E-3,-2.4262525E-3,-1.692674E-3,1.4010056E-4,-1.0969052E-3,-2.2970512E-6,1.826961E-3,8.36029E-4],"categories":[],"categories_nodes":[],"categories_segments":[],"categories_sizes":[],"default_left":[0,0,0,0,0,0,0,0,0,0,0,0,0,0,0,0,0,0,0,0,0,0,0],"id":49,"left_children":[1,3,5,7,9,11,13,15,17,19,-1,21,-1,-1,-1,-1,-1,-1,-1,-1,-1,-1,-1],"loss_changes":[1.4111122E0,3.8014913E-1,8.801252E-2,1.2869316E-1,5.7869084E-2,4.142037E-2,3.5305023E-3,2.3873925E-2,4.588506E-2,3.0316666E-2,0E0,1.76941E-2,0E0,0E0,0E0,0E0,0E0,0E0,0E0,0E0,0E0,0E0,0E0],"parents":[2147483647,0,0,1,1,2,2,3,3,4,4,5,5,6,6,7,7,8,8,9,9,11,11],"right_children":[2,4,6,8,10,12,14,16,18,20,-1,22,-1,-1,-1,-1,-1,-1,-1,-1,-1,-1,-1],"split_conditions":[3.6249793E-1,7.1277726E-1,7.011806E-1,6.2629175E-1,7.617032E-1,4.6032816E-1,9.002733E-1,5.541445E-1,5.131829E-1,6.495866E-1,1.2580345E-3,8.5709745E-1,2.4342635E-3,2.6426075E-3,3.6506418E-3,-3.6387972E-3,-2.4262525E-3,-1.692674E-3,1.4010056E-4,-1.0969052E-3,-2.2970512E-6,1.826961E-3,8.36029E-4],"split_indices":[4,2,1,6,7,4,2,2,1,3,0,0,0,0,0,0,0,0,0,0,0,0,0],"split_type":[0,0,0,0,0,0,0,0,0,0,0,0,0,0,0,0,0,0,0,0,0,0,0],"sum_hessian":[4.14E2,2.65E2,1.49E2,1.52E2,1.13E2,1.01E2,4.8E1,1.1E2,4.2E1,9.2E1,2.1E1,6.7E1,3.4E1,2.8E1,2E1,2.1E1,8.9E1,2.2E1,2E1,2.8E1,6.4E1,2.3E1,4.4E1],"tree_param":{"num_deleted":"0","num_feature":"8","num_nodes":"23","size_leaf_vector":"1"}},{"base_weights":[9.3624234E-4,-5.4873485E-2,5.7302166E-2,-8.0783166E-2,-7.3299794E-3,2.6890697E-2,9.2379734E-2,-1.06842645E-1,-6.0248315E-2,-1.2465155E-3,1.8693557E-2,-8.736268E-3,5.1520742E-2,7.116805E-2,3.2559242E-3,-3.273876E-3,-2.3890159E-3,-2.185864E-3,-4.8034664E-4,1.0885781E-3,-6.2479914E-5,-1.0305184E-3,4.2401452E-4,1.0196164E-3,2.2732082E-3,1.4067634E-3,2.434597E-3],"categories":[],"categories_nodes":[],"categories_segments":[],"categories_sizes":[],"default_left":[0,0,0,0,0,0,0,0,0,0,0,0,0,0,0,0,0,0,0,0,0,0,0,0,0,0,0],"id":50,"left_children":[1,3,5,7,9,11,13,15,17,-1,19,21,23,25,-1,-1,-1,-1,-1,-1,-1,-1,-1,-1,-1,-1,-1],"loss_changes":[1.2583053E0,2.4700713E-1,2.098012E-1,6.3129485E-2,7.026149E-2,9.521941E-2,3.772098E-2,1.9521713E-3,5.557409E-2,0E0,1.8137755E-2,3.0541176E-2,2.5711372E-2,1.234296E-2,0E0,0E0,0E0,0E0,0E0,0E0,0E0,0E0,0E0,0E0,0E0,0E0,0E0],"parents":[2147483647,0,0,1,1,2,2,3,3,4,4,5,5,6,6,7,7,8,8,10,10,11,11,12,12,13,13],"right_children":[2,4,6,8,10,12,14,16,18,-1,20,22,24,26,-1,-1,-1,-1,-1,-1,-1,-1,-1,-1,-1,-1,-1],"split_conditions":[3.1176618E-1,6.3111144E-1,6.55482E-1,4.3762073E-1,5.3354865E-1,7.4843717E-1,5.0299835E-1,2.2842416E-1,6.993341E-1,-1.2465155E-3,7.278782E-1,6.657804E-1,4.246244E-1,8.137305E-1,3.2559242E-3,-3.273876E-3,-2.3890159E-3,-2.185864E-3,-4.8034664E-4,1.0885781E-3,-6.2479914E-5,-1.0305184E-3,4.2401452E-4,1.0196164E-3,2.2732082E-3,1.4067634E-3,2.434597E-3],"split_indices":[4,6,1,7,1,3,4,4,2,0,3,6,4,6,0,0,0,0,0,0,0,0,0,0,0,0,0],"split_type":[0,0,0,0,0,0,0,0,0,0,0,0,0,0,0,0,0,0,0,0,0,0,0,0,0,0,0],"sum_hessian":[3.98E2,2E2,1.98E2,1.29E2,7.1E1,1.07E2,9.1E1,5.5E1,7.4E1,2.9E1,4.2E1,4.4E1,6.3E1,5E1,4.1E1,3.5E1,2E1,5.2E1,2.2E1,2.1E1,2.1E1,2E1,2.4E1,4.3E1,2E1,2.3E1,2.7E1],"tree_param":{"num_deleted":"0","num_feature":"8","num_nodes":"27","size_leaf_vector":"1"}},{"base_weights":[1.7185301E-3,-6.901517E-2,4.443481E-2,-7.936666E-2,-3.243968E-5,1.2907395E-2,8.576801E-2,-9.4018914E-2,-4.8258375E-2,-2.329603E-3,3.5277642E-2,7.147829E-2,3.3407027E-3,-3.0537273E-3,-2.2954908E-3,-6.0826563E-4,-2.14444E-3,-8.05613E-4,6.935013E-4,1.4357833E-4,2.1848541E-3,1.6847417E-3,2.5232963E-3],"categories":[],"categories_nodes":[],"categories_segments":[],"categories_sizes":[],"default_left":[0,0,0,0,0,0,0,0,0,0,0,0,0,0,0,0,0,0,0,0,0,0,0],"id":51,"left_children":[1,3,5,7,-1,9,11,13,15,17,19,21,-1,-1,-1,-1,-1,-1,-1,-1,-1,-1,-1],"loss_changes":[1.2116587E0,1.0597873E-1,3.246752E-1,5.5173457E-2,0E0,4.8824515E-2,4.2715967E-2,7.018566E-3,3.1234607E-2,6.1962847E-2,7.39957E-2,1.1071682E-2,0E0,0E0,0E0,0E0,0E0,0E0,0E0,0E0,0E0,0E0,0E0],"parents":[2147483647,0,0,1,1,2,2,3,3,5,5,6,6,7,7,8,8,9,9,10,10,11,11],"right_children":[2,4,6,8,-1,10,12,14,16,18,20,22,-1,-1,-1,-1,-1,-1,-1,-1,-1,-1,-1],"split_conditions":[7.166269E-1,6.903823E-1,6.411549E-1,2.4556324E-1,-3.243968E-5,7.159326E-1,8.8766E-1,1.6859403E-1,2.9883483E-1,3.2301015E-1,3.8510352E-1,6.990984E-1,3.3407027E-3,-3.0537273E-3,-2.2954908E-3,-6.0826563E-4,-2.14444E-3,-8.05613E-4,6.935013E-4,1.4357833E-4,2.1848541E-3,1.6847417E-3,2.5232963E-3],"split_indices":[2,6,1,4,0,7,2,4,5,4,4,1,0,0,0,0,0,0,0,0,0,0,0],"split_type":[0,0,0,0,0,0,0,0,0,0,0,0,0,0,0,0,0,0,0,0,0,0,0],"sum_hessian":[3.99E2,1.5E2,2.49E2,1.3E2,2E1,1.42E2,1.07E2,8.7E1,4.3E1,8.5E1,5.7E1,7.7E1,3E1,3.6E1,5.1E1,2.3E1,2E1,4.3E1,4.2E1,3.4E1,2.3E1,5E1,2.7E1],"tree_param":{"num_deleted":"0","num_feature":"8","num_nodes":"23","size_leaf_vector":"1"}},{"base_weights":[2.382081E-3,-4.8817605E-2,5.5388954E-2,-8.7853566E-2,-2.344405E-2,1.843813E-2,8.157617E-2,-1.05777E-1,-1.8019716E-3,-5.7976387E-2,3.6365492E-3,4.20337E-3,1.0626793E-3,7.037877E-2,3.530421E-3,-3.3841685E-3,-2.445834E-3,-2.1287636E-3,-1.2018614E-3,-5.92952E-4,8.3400693E-4,-5.934808E-4,1.0950079E-3,1.6575155E-3,2.5158594E-3],"categories":[],"categories_nodes":[],"categories_segments":[],"categories_sizes":[],"default_left":[0,0,0,0,0,0,0,0,0,0,0,0,0,0,0,0,0,0,0,0,0,0,0,0,0],"id":52,"left_children":[1,3,5,7,9,11,13,15,-1,17,19,21,-1,23,-1,-1,-1,-1,-1,-1,-1,-1,-1,-1,-1],"loss_changes":[1.088278E0,1.9999847E-1,1.8912071E-1,2.7179599E-2,1.1710538E-1,2.2763949E-2,4.7985792E-2,1.6129613E-3,0E0,1.1638343E-2,4.642328E-2,4.4011924E-2,0E0,1.5217811E-2,0E0,0E0,0E0,0E0,0E0,0E0,0E0,0E0,0E0,0E0,0E0],"parents":[2147483647,0,0,1,1,2,2,3,3,4,4,5,5,6,6,7,7,9,9,10,10,11,11,13,13],"right_children":[2,4,6,8,10,12,14,16,-1,18,20,22,-1,24,-1,-1,-1,-1,-1,-1,-1,-1,-1,-1,-1],"split_conditions":[3.1176618E-1,2.1473312E-1,8.0623704E-1,1.6859403E-1,6.8712145E-1,3.6249793E-1,9.002733E-1,1.4409874E-1,-1.8019716E-3,2.8615156E-1,3.5361513E-1,7.885265E-1,1.0626793E-3,6.990984E-1,3.530421E-3,-3.3841685E-3,-2.445834E-3,-2.1287636E-3,-1.2018614E-3,-5.92952E-4,8.3400693E-4,-5.934808E-4,1.0950079E-3,1.6575155E-3,2.5158594E-3],"split_indices":[4,4,2,4,2,4,2,4,0,5,5,3,0,1,0,0,0,0,0,0,0,0,0,0,0],"split_type":[0,0,0,0,0,0,0,0,0,0,0,0,0,0,0,0,0,0,0,0,0,0,0,0,0],"sum_hessian":[3.99E2,2.03E2,1.96E2,7.9E1,1.24E2,8.2E1,1.14E2,4.3E1,3.6E1,5.4E1,7E1,4.8E1,3.4E1,9.3E1,2.1E1,2.1E1,2.2E1,2.3E1,3.1E1,3.6E1,3.4E1,2.8E1,2E1,6.1E1,3.2E1],"tree_param":{"num_deleted":"0","num_feature":"8","num_nodes":"25","size_leaf_vector":"1"}},{"base_weights":[-1.1795355E-3,-5.3581916E-2,5.1486794E-2,-1.00748606E-1,-3.5495225E-2,1.3319986E-2,7.724182E-2,-2.364575E-3,-3.2097232E-3,-6.91659E-2,-1.1369349E-2,-5.386761E-3,9.42606E-4,5.7113647E-2,2.8183814E-3,-2.8125837E-3,-1.3935161E-3,6.502186E-4,-6.5231277E-4,9.82766E-4,-1.1372652E-3,1.0183089E-3,1.8869389E-3],"categories":[],"categories_nodes":[],"categories_segments":[],"categories_sizes":[],"default_left":[0,0,0,0,0,0,0,0,0,0,0,0,0,0,0,0,0,0,0,0,0,0,0],"id":53,"left_children":[1,3,5,7,9,11,13,-1,-1,15,17,19,-1,21,-1,-1,-1,-1,-1,-1,-1,-1,-1],"loss_changes":[1.1232543E0,1.7045414E-1,1.9851756E-1,2.9293895E-3,1.2025148E-1,3.161351E-2,5.0565958E-2,0E0,0E0,3.257847E-2,3.6562867E-2,6.3798E-2,0E0,1.16426945E-2,0E0,0E0,0E0,0E0,0E0,0E0,0E0,0E0,0E0],"parents":[2147483647,0,0,1,1,2,2,3,3,4,4,5,5,6,6,9,9,10,10,11,11,13,13],"right_children":[2,4,6,8,10,12,14,-1,-1,16,18,20,-1,22,-1,-1,-1,-1,-1,-1,-1,-1,-1],"split_conditions":[3.1176618E-1,4.3762073E-1,8.0623704E-1,7.842455E-1,6.6826797E-1,6.9234943E-1,7.004771E-1,-2.364575E-3,-3.2097232E-3,1.7831714E-1,5.599107E-1,5.671473E-1,9.42606E-4,7.227156E-1,2.8183814E-3,-2.8125837E-3,-1.3935161E-3,6.502186E-4,-6.5231277E-4,9.82766E-4,-1.1372652E-3,1.0183089E-3,1.8869389E-3],"split_indices":[4,7,2,3,2,7,1,0,0,4,7,7,0,6,0,0,0,0,0,0,0,0,0],"split_type":[0,0,0,0,0,0,0,0,0,0,0,0,0,0,0,0,0,0,0,0,0,0,0],"sum_hessian":[4.05E2,2.03E2,2.02E2,5.5E1,1.48E2,8.2E1,1.2E2,2.8E1,2.7E1,6.1E1,8.7E1,4.3E1,3.9E1,6.6E1,5.4E1,2.2E1,3.9E1,2.2E1,6.5E1,2E1,2.3E1,2.3E1,4.3E1],"tree_param":{"num_deleted":"0","num_feature":"8","num_nodes":"23","size_leaf_vector":"1"}},{"base_weights":[-2.0252096E-3,-5.20348E-2,4.972741E-2,-1.0047634E-1,-3.4510158E-2,1.0793977E-2,7.1207516E-2,-3.3703982E-3,-2.4119038E-3,-2.5089078E-3,-2.0636914E-2,-8.375295E-4,3.0074166E-2,8.8783115E-4,8.176639E-2,-1.2162024E-3,-2.8012673E-5,1.503621E-3,2.7307533E-4,2.037212E-3,3.0533941E-3],"categories":[],"categories_nodes":[],"categories_segments":[],"categories_sizes":[],"default_left":[0,0,0,0,0,0,0,0,0,0,0,0,0,0,0,0,0,0,0,0,0],"id":54,"left_children":[1,3,5,7,9,11,13,-1,-1,-1,15,-1,17,-1,19,-1,-1,-1,-1,-1,-1],"loss_changes":[1.0637199E0,1.7395687E-1,1.6816282E-1,5.3736567E-3,1.1605433E-1,5.806318E-2,5.1763296E-2,0E0,0E0,0E0,5.5609412E-2,0E0,2.3357525E-2,0E0,1.7480552E-2,0E0,0E0,0E0,0E0,0E0,0E0],"parents":[2147483647,0,0,1,1,2,2,3,3,4,4,5,5,6,6,10,10,12,12,14,14],"right_children":[2,4,6,8,10,12,14,-1,-1,-1,16,-1,18,-1,20,-1,-1,-1,-1,-1,-1],"split_conditions":[3.1176618E-1,1.8887253E-1,7.159326E-1,1.4288679E-1,4.3744683E-1,7.074568E-1,8.0572957E-1,-3.3703982E-3,-2.4119038E-3,-2.5089078E-3,6.3111144E-1,-8.375295E-4,5.742314E-1,8.8783115E-4,5.739858E-1,-1.2162024E-3,-2.8012673E-5,1.503621E-3,2.7307533E-4,2.037212E-3,3.0533941E-3],"split_indices":[4,4,7,4,7,3,2,0,0,0,6,0,6,0,4,0,0,0,0,0,0],"split_type":[0,0,0,0,0,0,0,0,0,0,0,0,0,0,0,0,0,0,0,0,0],"sum_hessian":[4.09E2,2.08E2,2.01E2,5.4E1,1.54E2,7.2E1,1.29E2,2E1,3.4E1,3E1,1.24E2,2.3E1,4.9E1,2.8E1,1.01E2,5.7E1,6.7E1,2.2E1,2.7E1,7.8E1,2.3E1],"tree_param":{"num_deleted":"0","num_feature":"8","num_nodes":"21","size_leaf_vector":"1"}},{"base_weights":[-9.327071E-4,-6.0416408E-2,4.3427695E-2,-7.297137E-2,6.9187727E-4,1.680174E-2,8.449866E-2,-4.8708916E-4,-8.1823856E-2,-2.5511803E-3,5.2462135E-2,7.028444E-2,2.8116868E-3,-3.0816433E-3,-1.9529526E-3,-5.160665E-4,1.0338285E-3,9.552233E-4,1.8462816E-3,1.6488173E-3,2.2458967E-3],"categories":[],"categories_nodes":[],"categories_segments":[],"categories_sizes":[],"default_left":[0,0,0,0,0,0,0,0,0,0,0,0,0,0,0,0,0,0,0,0,0],"id":55,"left_children":[1,3,5,7,-1,9,11,-1,13,15,17,19,-1,-1,-1,-1,-1,-1,-1,-1,-1],"loss_changes":[1.0686669E0,1.8653321E-1,2.5228474E-1,7.293892E-2,0E0,9.813269E-2,1.3167739E-2,0E0,3.6931574E-2,5.8609106E-2,1.0014027E-2,1.0227263E-3,0E0,0E0,0E0,0E0,0E0,0E0,0E0,0E0,0E0],"parents":[2147483647,0,0,1,1,2,2,3,3,5,5,6,6,8,8,9,9,10,10,11,11],"right_children":[2,4,6,8,-1,10,12,-1,14,16,18,20,-1,-1,-1,-1,-1,-1,-1,-1,-1],"split_conditions":[2.8760147E-1,8.714441E-1,6.55482E-1,5.187351E-1,6.9187727E-4,3.8510352E-1,5.006986E-1,-4.8708916E-4,1.6859403E-1,8.5371524E-1,7.1066415E-1,6.9671977E-1,2.8116868E-3,-3.0816433E-3,-1.9529526E-3,-5.160665E-4,1.0338285E-3,9.552233E-4,1.8462816E-3,1.6488173E-3,2.2458967E-3],"split_indices":[4,0,1,3,0,4,4,0,4,3,7,1,0,0,0,0,0,0,0,0,0],"split_type":[0,0,0,0,0,0,0,0,0,0,0,0,0,0,0,0,0,0,0,0,0],"sum_hessian":[4.03E2,1.72E2,2.31E2,1.5E2,2.2E1,1.41E2,9E1,2.1E1,1.29E2,9.2E1,4.9E1,5E1,4E1,3.7E1,9.2E1,6.6E1,2.6E1,2.2E1,2.7E1,2.6E1,2.4E1],"tree_param":{"num_deleted":"0","num_feature":"8","num_nodes":"21","size_leaf_vector":"1"}},{"base_weights":[1.2795806E-3,-5.0446764E-2,4.279409E-2,-6.802016E-2,-6.2190373E-3,1.430693E-2,7.584412E-2,-7.8800544E-2,-2.6227493E-4,-7.075246E-4,6.4566033E-4,-1.5833935E-2,4.0518045E-2,5.8817532E-2,2.6645532E-3,-3.236858E-3,-1.9435165E-3,3.9790262E-4,-1.3956039E-3,1.6832998E-3,5.910929E-4,2.440651E-3,9.114563E-4],"categories":[],"categories_nodes":[],"categories_segments":[],"categories_sizes":[],"default_left":[0,0,0,0,0,0,0,0,0,0,0,0,0,0,0,0,0,0,0,0,0,0,0],"id":56,"left_children":[1,3,5,7,9,11,13,15,-1,-1,-1,17,19,21,-1,-1,-1,-1,-1,-1,-1,-1,-1],"loss_changes":[8.632638E-1,1.3870138E-1,2.088697E-1,8.023745E-2,2.9399848E-2,9.623466E-2,2.7802765E-2,2.980572E-2,0E0,0E0,0E0,5.8610983E-2,2.3317188E-2,3.9387986E-2,0E0,0E0,0E0,0E0,0E0,0E0,0E0,0E0,0E0],"parents":[2147483647,0,0,1,1,2,2,3,3,4,4,5,5,6,6,7,7,11,11,12,12,13,13],"right_children":[2,4,6,8,10,12,14,16,-1,-1,-1,18,20,22,-1,-1,-1,-1,-1,-1,-1,-1,-1],"split_conditions":[7.287931E-1,2.6318428E-1,6.411549E-1,6.9056165E-1,7.0411885E-1,3.3838075E-1,7.049852E-1,5.537389E-1,-2.6227493E-4,-7.075246E-4,6.4566033E-4,7.619991E-1,5.9002984E-1,6.726083E-1,2.6645532E-3,-3.236858E-3,-1.9435165E-3,3.9790262E-4,-1.3956039E-3,1.6832998E-3,5.910929E-4,2.440651E-3,9.114563E-4],"split_indices":[2,4,1,7,2,4,1,2,0,0,0,2,1,1,0,0,0,0,0,0,0,0,0],"split_type":[0,0,0,0,0,0,0,0,0,0,0,0,0,0,0,0,0,0,0,0,0,0,0],"sum_hessian":[4E2,1.78E2,2.22E2,1.27E2,5.1E1,1.2E2,1.02E2,1.07E2,2E1,3.1E1,2E1,5.6E1,6.4E1,5.6E1,4.6E1,2E1,8.7E1,3E1,2.6E1,3.1E1,3.3E1,2.6E1,3E1],"tree_param":{"num_deleted":"0","num_feature":"8","num_nodes":"23","size_leaf_vector":"1"}},{"base_weights":[1.1516098E-3,-4.789473E-2,4.9471036E-2,-6.906203E-2,-1.1412838E-2,1.909237E-2,7.015151E-2,-8.323581E-2,-4.5569707E-2,-1.5337251E-3,2.2006214E-2,-3.627967E-3,4.189909E-2,5.698692E-2,2.7063983E-3,-2.6923467E-3,-1.9331898E-3,-1.847917E-3,-8.393862E-4,9.917264E-4,1.7927556E-4,-9.6325955E-4,7.6411874E-4,1.856914E-3,4.0800744E-4,7.926035E-4,1.844252E-3],"categories":[],"categories_nodes":[],"categories_segments":[],"categories_sizes":[],"default_left":[0,0,0,0,0,0,0,0,0,0,0,0,0,0,0,0,0,0,0,0,0,0,0,0,0,0,0],"id":57,"left_children":[1,3,5,7,9,11,13,15,17,-1,19,21,23,25,-1,-1,-1,-1,-1,-1,-1,-1,-1,-1,-1,-1,-1],"loss_changes":[9.598054E-1,1.5442872E-1,1.2682262E-1,3.8494766E-2,1.0948004E-1,4.367882E-2,3.6271513E-2,7.589221E-3,1.3895243E-2,0E0,8.713996E-3,4.16036E-2,2.6884362E-2,1.8877238E-2,0E0,0E0,0E0,0E0,0E0,0E0,0E0,0E0,0E0,0E0,0E0,0E0,0E0],"parents":[2147483647,0,0,1,1,2,2,3,3,4,4,5,5,6,6,7,7,8,8,10,10,11,11,12,12,13,13],"right_children":[2,4,6,8,10,12,14,16,18,-1,20,22,24,26,-1,-1,-1,-1,-1,-1,-1,-1,-1,-1,-1,-1,-1],"split_conditions":[3.1176618E-1,6.3111144E-1,8.0623704E-1,2.384012E-1,5.3354865E-1,7.568712E-1,8.8169503E-1,4.3762073E-1,4.765271E-1,-1.5337251E-3,7.1585804E-1,6.657804E-1,5.643886E-1,7.209929E-1,2.7063983E-3,-2.6923467E-3,-1.9331898E-3,-1.847917E-3,-8.393862E-4,9.917264E-4,1.7927556E-4,-9.6325955E-4,7.6411874E-4,1.856914E-3,4.0800744E-4,7.926035E-4,1.844252E-3],"split_indices":[4,6,2,4,1,3,2,7,6,0,6,6,1,6,0,0,0,0,0,0,0,0,0,0,0,0,0],"split_type":[0,0,0,0,0,0,0,0,0,0,0,0,0,0,0,0,0,0,0,0,0,0,0,0,0,0,0],"sum_hessian":[4.03E2,2E2,2.03E2,1.26E2,7.4E1,8.3E1,1.2E2,7.7E1,4.9E1,3.2E1,4.2E1,4.2E1,4.1E1,8.2E1,3.8E1,3.8E1,3.9E1,2E1,2.9E1,2.2E1,2E1,2.1E1,2.1E1,2.1E1,2E1,2E1,6.2E1],"tree_param":{"num_deleted":"0","num_feature":"8","num_nodes":"27","size_leaf_vector":"1"}},{"base_weights":[-2.1719205E-4,-3.6065366E-2,5.7280965E-2,-6.242892E-2,-4.2499243E-3,4.165657E-2,2.4718908E-3,-7.918056E-2,-5.803249E-4,-1.97082E-2,1.3621862E-2,3.1672012E-2,2.2357597E-3,-2.467431E-3,-1.6590325E-3,-1.1895011E-3,6.0095197E-5,1.0164278E-3,-2.6549704E-4,2.2684275E-4,1.234717E-3],"categories":[],"categories_nodes":[],"categories_segments":[],"categories_sizes":[],"default_left":[0,0,0,0,0,0,0,0,0,0,0,0,0,0,0,0,0,0,0,0,0],"id":58,"left_children":[1,3,5,7,9,11,-1,13,-1,15,17,19,-1,-1,-1,-1,-1,-1,-1,-1,-1],"loss_changes":[8.265475E-1,2.0691043E-1,7.029474E-2,9.281337E-2,3.148663E-2,3.6890358E-2,0E0,1.1563122E-2,0E0,3.027393E-2,2.7947018E-2,2.401071E-2,0E0,0E0,0E0,0E0,0E0,0E0,0E0,0E0,0E0],"parents":[2147483647,0,0,1,1,2,2,3,3,4,4,5,5,7,7,9,9,10,10,11,11],"right_children":[2,4,6,8,10,12,-1,14,-1,16,18,20,-1,-1,-1,-1,-1,-1,-1,-1,-1],"split_conditions":[7.754818E-1,7.013981E-1,4.9175844E-1,6.2347025E-1,3.8384137E-1,6.990984E-1,2.4718908E-3,2.384012E-1,-5.803249E-4,7.287931E-1,4.2664486E-1,3.8245708E-1,2.2357597E-3,-2.467431E-3,-1.6590325E-3,-1.1895011E-3,6.0095197E-5,1.0164278E-3,-2.6549704E-4,2.2684275E-4,1.234717E-3],"split_indices":[2,2,4,6,5,1,0,4,0,2,5,4,0,0,0,0,0,0,0,0,0],"split_type":[0,0,0,0,0,0,0,0,0,0,0,0,0,0,0,0,0,0,0,0,0],"sum_hessian":[3.99E2,2.46E2,1.53E2,1.34E2,1.12E2,1.03E2,5E1,9.5E1,3.9E1,6E1,5.2E1,8.3E1,2E1,6.4E1,3.1E1,2.9E1,3.1E1,2.6E1,2.6E1,2.9E1,5.4E1],"tree_param":{"num_deleted":"0","num_feature":"8","num_nodes":"21","size_leaf_vector":"1"}},{"base_weights":[1.5977423E-3,-3.171666E-2,5.949595E-2,-6.0899425E-2,-3.6119432E-3,4.489574E-2,8.509452E-2,-7.7908695E-2,-2.462093E-2,-2.2768142E-2,2.6665367E-2,3.2506082E-2,1.9390649E-3,1.8986721E-3,2.7604064E-3,-2.952479E-3,-1.879009E-3,-1.3937723E-3,7.725862E-5,-1.1973953E-3,-2.3588698E-5,6.730888E-5,1.3774269E-3,1.5868921E-3,4.8995425E-4],"categories":[],"categories_nodes":[],"categories_segments":[],"categories_sizes":[],"default_left":[0,0,0,0,0,0,0,0,0,0,0,0,0,0,0,0,0,0,0,0,0,0,0,0,0],"id":59,"left_children":[1,3,5,7,9,11,13,15,17,19,21,23,-1,-1,-1,-1,-1,-1,-1,-1,-1,-1,-1,-1,-1],"loss_changes":[7.8692657E-1,2.122049E-1,5.1867545E-2,7.644984E-2,7.774688E-2,2.6779786E-2,5.5865347E-3,1.8720925E-2,2.8887039E-2,3.5690565E-2,2.8128058E-2,2.2868931E-2,0E0,0E0,0E0,0E0,0E0,0E0,0E0,0E0,0E0,0E0,0E0,0E0,0E0],"parents":[2147483647,0,0,1,1,2,2,3,3,4,4,5,5,6,6,7,7,8,8,9,9,10,10,11,11],"right_children":[2,4,6,8,10,12,14,16,18,20,22,24,-1,-1,-1,-1,-1,-1,-1,-1,-1,-1,-1,-1,-1],"split_conditions":[3.6249793E-1,5.1710486E-1,7.004771E-1,2.4556324E-1,3.9519626E-1,4.6032816E-1,8.4803325E-1,1.5005575E-1,6.656977E-1,5.7354146E-1,8.600384E-1,8.602813E-1,1.9390649E-3,1.8986721E-3,2.7604064E-3,-2.952479E-3,-1.879009E-3,-1.3937723E-3,7.725862E-5,-1.1973953E-3,-2.3588698E-5,6.730888E-5,1.3774269E-3,1.5868921E-3,4.8995425E-4],"split_indices":[4,1,1,4,5,4,6,4,3,1,3,0,0,0,0,0,0,0,0,0,0,0,0,0,0],"split_type":[0,0,0,0,0,0,0,0,0,0,0,0,0,0,0,0,0,0,0,0,0,0,0,0,0],"sum_hessian":[4.06E2,2.58E2,1.48E2,1.26E2,1.32E2,9.6E1,5.2E1,8.5E1,4.1E1,8.1E1,5.1E1,6.5E1,3.1E1,2.5E1,2.7E1,2.2E1,6.3E1,2.1E1,2E1,4.2E1,3.9E1,2.5E1,2.6E1,2.4E1,4.1E1],"tree_param":{"num_deleted":"0","num_feature":"8","num_nodes":"25","size_leaf_vector":"1"}},{"base_weights":[1.0303211E-3,-5.444212E-2,3.681484E-2,-7.071377E-2,-1.1287589E-2,1.3933188E-2,7.111213E-2,-8.078316E-2,-1.3457378E-3,-1.1930388E-3,7.4100925E-4,-4.577937E-3,3.8879044E-2,6.3744865E-2,2.680312E-3,-2.5595084E-3,-1.992054E-3,-5.607712E-4,3.0656412E-4,1.6260644E-3,5.407562E-4,2.4727779E-3,1.4833376E-3],"categories":[],"categories_nodes":[],"categories_segments":[],"categories_sizes":[],"default_left":[0,0,0,0,0,0,0,0,0,0,0,0,0,0,0,0,0,0,0,0,0,0,0],"id":60,"left_children":[1,3,5,7,9,11,13,15,-1,-1,-1,17,19,21,-1,-1,-1,-1,-1,-1,-1,-1,-1],"loss_changes":[8.0992144E-1,1.115531E-1,1.9363433E-1,2.2754192E-2,5.40048E-2,6.944437E-2,1.1660516E-2,1.593709E-3,0E0,0E0,0E0,2.096357E-2,2.2775225E-2,1.63292E-2,0E0,0E0,0E0,0E0,0E0,0E0,0E0,0E0,0E0],"parents":[2147483647,0,0,1,1,2,2,3,3,4,4,5,5,6,6,7,7,11,11,12,12,13,13],"right_children":[2,4,6,8,10,12,14,16,-1,-1,-1,18,20,22,-1,-1,-1,-1,-1,-1,-1,-1,-1],"split_conditions":[7.166269E-1,6.2629175E-1,6.55482E-1,2.384012E-1,6.568867E-1,3.4734374E-1,8.8424015E-1,1.6859403E-1,-1.3457378E-3,-1.1930388E-3,7.4100925E-4,3.8384137E-1,5.9736973E-1,6.7802745E-1,2.680312E-3,-2.5595084E-3,-1.992054E-3,-5.607712E-4,3.0656412E-4,1.6260644E-3,5.407562E-4,2.4727779E-3,1.4833376E-3],"split_indices":[2,6,1,4,7,4,7,4,0,0,0,5,1,1,0,0,0,0,0,0,0,0,0],"split_type":[0,0,0,0,0,0,0,0,0,0,0,0,0,0,0,0,0,0,0,0,0,0,0],"sum_hessian":[4.06E2,1.59E2,2.47E2,1.15E2,4.4E1,1.49E2,9.8E1,7.8E1,3.7E1,2.4E1,2E1,8.6E1,6.3E1,7.8E1,2E1,3.4E1,4.4E1,4.3E1,4.3E1,3.1E1,3.2E1,2.2E1,5.6E1],"tree_param":{"num_deleted":"0","num_feature":"8","num_nodes":"23","size_leaf_vector":"1"}},{"base_weights":[-1.9679626E-4,-4.257103E-2,4.1756783E-2,-6.149213E-2,-7.5936653E-3,1.24307E-2,6.270516E-2,-4.6725964E-4,-6.956956E-2,-2.4854708E-2,8.9814246E-4,-5.3265407E-3,2.9898854E-2,5.2680388E-2,2.689436E-3,-2.7224051E-3,-1.6133657E-3,-1.1717728E-3,1.2039277E-5,-8.6390355E-4,5.091172E-4,1.163157E-3,4.45379E-4,8.1652054E-4,1.6885924E-3],"categories":[],"categories_nodes":[],"categories_segments":[],"categories_sizes":[],"default_left":[0,0,0,0,0,0,0,0,0,0,0,0,0,0,0,0,0,0,0,0,0,0,0,0,0],"id":61,"left_children":[1,3,5,7,9,11,13,-1,15,17,-1,19,21,23,-1,-1,-1,-1,-1,-1,-1,-1,-1,-1,-1],"loss_changes":[7.111002E-1,1.3123327E-1,1.22701645E-1,4.557973E-2,4.929516E-2,2.6525088E-2,3.37317E-2,0E0,3.059107E-2,2.1344304E-2,0E0,2.6211208E-2,6.297253E-3,1.442498E-2,0E0,0E0,0E0,0E0,0E0,0E0,0E0,0E0,0E0,0E0,0E0],"parents":[2147483647,0,0,1,1,2,2,3,3,4,4,5,5,6,6,8,8,9,9,11,11,12,12,13,13],"right_children":[2,4,6,8,10,12,14,-1,16,18,-1,20,22,24,-1,-1,-1,-1,-1,-1,-1,-1,-1,-1,-1],"split_conditions":[3.1176618E-1,6.3111144E-1,8.0623704E-1,5.525604E-1,7.4071723E-1,7.568712E-1,9.002733E-1,-4.6725964E-4,1.6859403E-1,8.4773135E-1,8.9814246E-4,6.657804E-1,5.643886E-1,7.227156E-1,2.689436E-3,-2.7224051E-3,-1.6133657E-3,-1.1717728E-3,1.2039277E-5,-8.6390355E-4,5.091172E-4,1.163157E-3,4.45379E-4,8.1652054E-4,1.6885924E-3],"split_indices":[4,6,2,3,2,3,2,0,4,0,0,6,1,6,0,0,0,0,0,0,0,0,0,0,0],"split_type":[0,0,0,0,0,0,0,0,0,0,0,0,0,0,0,0,0,0,0,0,0,0,0,0,0],"sum_hessian":[3.98E2,1.98E2,2E2,1.28E2,7E1,8.4E1,1.16E2,2E1,1.08E2,4.9E1,2.1E1,4.2E1,4.2E1,9.1E1,2.5E1,3.1E1,7.7E1,2.9E1,2E1,2E1,2.2E1,2.2E1,2E1,2.3E1,6.8E1],"tree_param":{"num_deleted":"0","num_feature":"8","num_nodes":"25","size_leaf_vector":"1"}},{"base_weights":[-1.1671396E-3,-5.121862E-2,3.6645E-2,-6.464949E-2,-1.4056095E-2,1.2251032E-2,5.836114E-2,-7.2377145E-2,-6.0269365E-4,-1.095763E-3,4.1487432E-4,1.2489267E-3,9.135726E-4,6.891332E-4,6.9491096E-2,-2.947241E-3,-1.7808463E-3,4.4248198E-4,-8.698331E-4,1.6924527E-3,2.5441754E-3],"categories":[],"categories_nodes":[],"categories_segments":[],"categories_sizes":[],"default_left":[0,0,0,0,0,0,0,0,0,0,0,0,0,0,0,0,0,0,0,0,0],"id":62,"left_children":[1,3,5,7,9,11,13,15,-1,-1,-1,17,-1,-1,19,-1,-1,-1,-1,-1,-1],"loss_changes":[7.7403873E-1,8.693728E-2,1.22715056E-1,4.150015E-2,3.5118524E-2,2.4725446E-2,4.459715E-2,2.5169134E-2,0E0,0E0,0E0,3.4611527E-2,0E0,0E0,1.2451857E-2,0E0,0E0,0E0,0E0,0E0,0E0],"parents":[2147483647,0,0,1,1,2,2,3,3,4,4,5,5,6,6,7,7,11,11,14,14],"right_children":[2,4,6,8,10,12,14,16,-1,-1,-1,18,-1,-1,20,-1,-1,-1,-1,-1,-1],"split_conditions":[7.2617143E-1,2.6318428E-1,8.0623704E-1,6.873395E-1,5.217172E-1,7.149177E-1,6.407523E-1,5.541445E-1,-6.0269365E-4,-1.095763E-3,4.1487432E-4,8.650421E-1,9.135726E-4,6.891332E-4,5.5337733E-1,-2.947241E-3,-1.7808463E-3,4.4248198E-4,-8.698331E-4,1.6924527E-3,2.5441754E-3],"split_indices":[2,4,2,7,1,7,1,2,0,0,0,0,0,0,4,0,0,0,0,0,0],"split_type":[0,0,0,0,0,0,0,0,0,0,0,0,0,0,0,0,0,0,0,0,0],"sum_hessian":[4.07E2,1.75E2,2.32E2,1.28E2,4.7E1,1.1E2,1.22E2,1.08E2,2E1,2.5E1,2.2E1,7.2E1,3.8E1,3.1E1,9.1E1,2.1E1,8.7E1,5E1,2.2E1,6.6E1,2.5E1],"tree_param":{"num_deleted":"0","num_feature":"8","num_nodes":"21","size_leaf_vector":"1"}},{"base_weights":[8.7050267E-4,-2.8083442E-2,5.2272603E-2,-5.9181586E-2,-6.0919924E-3,4.386339E-2,2.5711858E-3,-2.3517206E-3,-4.5739174E-2,-1.6761791E-3,2.352461E-3,4.7012433E-4,5.2820753E-2,-1.6075855E-3,-4.233674E-4,-4.0029734E-4,8.832312E-4,1.023373E-3,1.6218998E-3],"categories":[],"categories_nodes":[],"categories_segments":[],"categories_sizes":[],"default_left":[0,0,0,0,0,0,0,0,0,0,0,0,0,0,0,0,0,0,0],"id":63,"left_children":[1,3,5,7,9,11,-1,-1,13,-1,15,-1,17,-1,-1,-1,-1,-1,-1],"loss_changes":[6.072035E-1,1.7813563E-1,4.4543236E-2,3.1823635E-2,6.983592E-2,2.8998867E-2,0E0,0E0,2.4535298E-2,0E0,6.519777E-2,0E0,5.32797E-3,0E0,0E0,0E0,